#Parameter# /arcs/vanilla-lstm-builder/_0 {200,160} 512001 ZERO_GRAD
-1.82934627e-02 +9.30924788e-02 +2.23829031e-01 -1.29312485e-01 -1.34619594e-01 -7.21346140e-02 -1.71977188e-02 -9.66380462e-02 +1.90291733e-01 -1.50540501e-01 -7.42196664e-02 -3.77518311e-02 -6.47381321e-02 -1.89353451e-01 -3.01428679e-02 +9.17921066e-02 -4.14388515e-02 +1.02497615e-01 +5.54973781e-02 +2.76485801e-01 +9.63343307e-02 +1.40515864e-02 +1.32629469e-01 -5.20568639e-02 -9.18142423e-02 -1.37390390e-01 +1.30108178e-01 +2.49640539e-01 +1.86785460e-01 +4.72384542e-02 -2.20340565e-01 -1.94363222e-01 -3.95474322e-02 -1.78447917e-01 +9.78455320e-02 +4.72407676e-02 -3.05292726e-01 -1.02472433e-03 -7.74887279e-02 +1.63483143e-01 -3.28892991e-02 -1.30046522e-02 -6.06584325e-02 +2.05114380e-01 -2.89837629e-01 +1.69756398e-01 -3.15226540e-02 -1.70038238e-01 +2.54230112e-01 -3.47780675e-01 -1.46654874e-01 -2.61534122e-03 +1.23966314e-01 -1.66239589e-01 +1.26683321e-02 -1.39124896e-02 -5.21240383e-02 -6.15108758e-02 -1.57243997e-01 -6.95032850e-02 -1.80709556e-01 +6.25885874e-02 -1.73420817e-01 +1.34353057e-01 +2.24169227e-03 -1.28381535e-01 +1.45746008e-01 +4.27764058e-02 -1.61961243e-01 -4.47780907e-01 -2.54065424e-01 -8.60867426e-02 -2.70202428e-01 +5.35252616e-02 +3.81361693e-02 -3.87104638e-02 +1.23309307e-01 -4.09857124e-01 +2.00281695e-01 +8.92104059e-02 +1.00277491e-01 -1.33282885e-01 +8.39158834e-04 -2.02546865e-01 -1.23921767e-01 -1.19224697e-01 -9.65189748e-03 +3.75638865e-02 +1.08850831e-02 -2.31731739e-02 -1.79674819e-01 -6.55314624e-02 -9.76696983e-02 -8.59107301e-02 -8.43442231e-02 +3.06539573e-02 +1.80519462e-01 +1.71535417e-01 -1.29763678e-01 +5.57191204e-03 +2.39902779e-01 +4.88886423e-03 +8.76466706e-02 -4.90248680e-01 +3.65243927e-02 +1.48373455e-01 +1.17482310e-02 -6.59667850e-02 +1.38172314e-01 +2.93716267e-02 -1.65672690e-01 -3.14479433e-02 -3.46708536e-01 +4.46694553e-01 +2.00394854e-01 +2.11696073e-01 +5.71293235e-02 -2.56180078e-01 -1.17837176e-01 -8.47969577e-02 -3.58064830e-01 -8.78677517e-02 -1.89795643e-01 -8.00361261e-02 +3.45384717e-01 -5.34186304e-01 +5.41567326e-01 -1.11138366e-01 +1.44996479e-01 +4.84494530e-02 -1.00548059e-01 -1.46738753e-01 -1.26227722e-01 +1.59714278e-02 +1.03075653e-01 +1.60633147e-01 +4.64288712e-01 +8.81765261e-02 -4.12737340e-01 -2.18427747e-01 -3.11093867e-01 +2.62871504e-01 -5.06189406e-01 -2.29574382e-01 +3.94982070e-01 -1.36920765e-01 -5.90708405e-02 +1.61780566e-01 -2.55099386e-02 -8.26713145e-02 +3.36125791e-01 -3.28545868e-01 +1.62370324e-01 -2.79261712e-02 -1.80110168e-02 +2.01079443e-01 +1.00802056e-01 -1.39379025e-01 -2.87383258e-01 -6.40146360e-02 -2.34590009e-01 +1.14879452e-01 +1.37743995e-01 -2.46140078e-01 -6.03692159e-02 +3.65461826e-01 +3.75420719e-01 +1.46916166e-01 -3.29013914e-01 +3.34396780e-01 -4.84164804e-02 +1.19643621e-01 -1.93068191e-01 +1.33391932e-01 -5.36321640e-01 +3.30683440e-01 -9.83370915e-02 -4.48559344e-01 -6.77489415e-02 +1.53187951e-02 -4.20554280e-01 +2.38867402e-02 -6.28537238e-02 -1.24688268e-01 -2.01653257e-01 -3.85874473e-02 -8.56317952e-02 +1.52589828e-02 -3.40942711e-01 +6.00035973e-02 -5.34031428e-02 -1.01733543e-02 -5.34389853e-01 +3.48847419e-01 +1.13369413e-02 -3.56675573e-02 +1.21236742e-01 +1.36559173e-01 +2.36565530e-01 +2.03908700e-02 -5.79529814e-02 +1.02982752e-01 +2.84646749e-01 -2.37564445e-01 -4.22294140e-02 +7.53250048e-02 +6.39167950e-02 -2.25060247e-02 +6.88944384e-02 +2.10830532e-02 -2.30617657e-01 -3.54712978e-02 -9.75907370e-02 -1.54688749e-02 -8.14942345e-02 -4.84996513e-02 +3.07538938e-02 +1.23486169e-01 -2.36332975e-02 +3.54853630e-01 +1.02507733e-01 +8.40756670e-02 +1.91179663e-02 -1.63686097e-01 -1.32005140e-01 -3.33995968e-02 +4.82334569e-02 +1.59559563e-01 +1.81411230e-03 +1.39940515e-01 -2.04626307e-01 -5.75697329e-03 -1.44836262e-01 -8.48411545e-02 +1.04043409e-02 +1.30621167e-02 -2.41447926e-01 +1.44651532e-01 -4.22531217e-02 +2.26863384e-01 -2.08399251e-01 -1.44355357e-01 -3.15663144e-02 +6.05635718e-02 -1.69141471e-01 +1.70017973e-01 -1.94699168e-02 -8.61106589e-02 +1.46188006e-01 -2.71321207e-01 -8.96127596e-02 -7.14386255e-02 +1.23987682e-01 -4.33740839e-02 -9.81457829e-02 +2.98487451e-02 -8.59345272e-02 -1.59630682e-02 -5.53855710e-02 -1.34038255e-01 -1.44696966e-01 -1.08804211e-01 -6.25683144e-02 +1.26091674e-01 -1.70991793e-02 -8.17557573e-02 +2.00293362e-02 +2.71803010e-02 -1.98745634e-02 -4.89330381e-01 -2.33063310e-01 +1.52602913e-02 -2.64136225e-01 +1.51847348e-01 +1.65798411e-01 -1.33501008e-01 -6.48098364e-02 -5.43965459e-01 +1.09427325e-01 -1.77516101e-03 +7.85832182e-02 -9.14655998e-02 +1.86019599e-01 -1.12169944e-01 +1.10953346e-01 +8.73474255e-02 -2.84643918e-02 +1.26232849e-02 -1.18950307e-01 -1.94694102e-01 -3.36168669e-02 -5.44825569e-02 -1.91381365e-01 -1.24639057e-01 -2.10686699e-01 -1.36701986e-01 +1.94823556e-02 +2.04406276e-01 -1.95128962e-01 -1.49897709e-02 +2.92815156e-02 +5.85194826e-02 -1.26853824e-01 -4.52333987e-01 -1.66898474e-01 +2.16441214e-01 +1.16974181e-02 -2.06014618e-01 +2.42457882e-01 -9.53972638e-02 -1.25601739e-01 +9.03841630e-02 -4.51447725e-01 +4.58176911e-01 +6.81023300e-02 +2.10097268e-01 -3.37709021e-03 -2.76456982e-01 -3.56338136e-02 -2.58272678e-01 -5.29192150e-01 -1.68717027e-01 -2.95107543e-01 +3.74052897e-02 +4.00736392e-01 -5.12862265e-01 +5.45869827e-01 -1.41893089e-01 -5.21710441e-02 +1.94448322e-01 -5.28524350e-03 -1.37393251e-01 -2.18099840e-02 -5.66758849e-02 +1.52235419e-01 +1.96183056e-01 +3.66913438e-01 +2.28145137e-01 -2.89673835e-01 -2.70947814e-01 -3.59979212e-01 +1.32991731e-01 -5.95647275e-01 -2.67476559e-01 +2.30774075e-01 -1.52264580e-01 -4.00897376e-02 +1.99713595e-02 -2.29887366e-02 -1.24495104e-01 +2.61856973e-01 -3.25134456e-01 +2.99547195e-01 +1.53583393e-01 +1.00368336e-01 +2.07986310e-01 +5.44062769e-03 -1.45803064e-01 -2.47740105e-01 +1.32639036e-01 -6.82537332e-02 +2.28485286e-01 +4.51421253e-02 -4.21124548e-01 +6.40243106e-03 +3.25419843e-01 +4.00190681e-01 +1.10463925e-01 -1.73170105e-01 +1.67346776e-01 +1.16089970e-01 -2.09030416e-02 -2.11994573e-01 +2.18281448e-02 -5.45168638e-01 +3.09983224e-01 -1.46000817e-01 -4.72516090e-01 -3.28542441e-02 +7.95352533e-02 -4.17731106e-01 +1.02194622e-01 +1.65283293e-01 +1.67425442e-02 -1.64307252e-01 -1.16547115e-01 +8.26366618e-02 +3.26308347e-02 -2.88169533e-01 -4.95651849e-02 +4.77237962e-02 +7.37827271e-02 -6.62018061e-01 +2.77481407e-01 +1.29059240e-01 -2.32809186e-02 +6.55075535e-02 +9.03408304e-02 +1.41546279e-01 -6.30397052e-02 -1.69630468e-01 +1.07065938e-01 +2.12825760e-01 -3.86330634e-02 -1.25517294e-01 -7.32384622e-02 -2.88654361e-02 -1.05400689e-01 +7.25602433e-02 -1.50878370e-01 -5.49005307e-02 -1.26726314e-01 -3.25915776e-03 -2.17466757e-01 -2.82170419e-02 -4.42608958e-03 -1.36928469e-01 +1.17993928e-01 +1.31057426e-01 +2.61177748e-01 -1.53749678e-02 -8.73469934e-03 +1.41502963e-02 -1.30318269e-01 -1.18534893e-01 -3.28489468e-02 +3.39779747e-03 +2.39101931e-01 +7.25052319e-03 +2.00154260e-01 -1.52251258e-01 -3.67551148e-02 -1.42038628e-01 -1.91459253e-01 +5.52642718e-02 -1.20871998e-01 -1.89203024e-01 +1.48672640e-01 -1.65227652e-01 +1.13084331e-01 -5.93834482e-02 +4.54434678e-02 -1.32297158e-01 +1.31881818e-01 -3.49771351e-01 -1.36736957e-02 +1.07314540e-02 -1.67686984e-01 +6.58978522e-02 -1.28370985e-01 -1.80103108e-01 -3.53185087e-02 +1.22988023e-01 -1.07293995e-02 -5.21556707e-03 +1.73026659e-02 -1.08512901e-01 -1.43096492e-01 -2.81072762e-02 +6.21164851e-02 -4.84991558e-02 -6.31786808e-02 -5.41982688e-02 +1.20238345e-02 -6.40133396e-02 +1.98408477e-02 +1.15419343e-01 +2.10257515e-01 +5.40151075e-02 -5.49587548e-01 -2.50909567e-01 +6.77985465e-03 -2.62214780e-01 -2.23497823e-02 +3.90777439e-02 -1.39695662e-03 -8.88237134e-02 -3.77263933e-01 +3.21065933e-02 -6.05248399e-02 +1.20529242e-01 +7.59283677e-02 +2.62611732e-02 -1.17481180e-01 -3.29210982e-02 +4.78349850e-02 -1.53217837e-01 +9.08439010e-02 -2.32132468e-02 -2.43120432e-01 -1.15830548e-01 -2.67414823e-02 -1.56713426e-01 -1.65426120e-01 -1.65532306e-01 -1.18626535e-01 +1.72543824e-01 +1.96150169e-01 -1.73430756e-01 -3.72415818e-02 +1.67228952e-01 -3.33479829e-02 -4.89183106e-02 -5.01482129e-01 +7.14166462e-02 +9.66330022e-02 +6.38875961e-02 -1.27991959e-01 +1.40408412e-01 -1.81509908e-02 -1.23832196e-01 +3.81831899e-02 -5.13436913e-01 +4.70869303e-01 +3.58298095e-03 +4.36356999e-02 +2.18581036e-02 -1.88346997e-01 -1.82099685e-01 -1.98941454e-01 -2.93714643e-01 -1.66900039e-01 -2.03678995e-01 +9.73592475e-02 +2.25287542e-01 -4.95279491e-01 +5.35334468e-01 -1.86690897e-01 -2.60488093e-02 +4.06576879e-02 +5.01555316e-02 -3.85684185e-02 -2.53643751e-01 -9.01456550e-02 -9.34529155e-02 +4.52387035e-02 +2.11292401e-01 +1.56253919e-01 -2.91493386e-01 -3.40306580e-01 -3.55234444e-01 +4.50525396e-02 -6.12841308e-01 -2.94417858e-01 +3.02679330e-01 -1.94286391e-01 -4.31557260e-02 +4.77560312e-02 -5.31478599e-02 +9.90387499e-02 +2.48699814e-01 -2.02815190e-01 +2.03285605e-01 +1.25264257e-01 -5.27246147e-02 +9.25754309e-02 -3.01042497e-02 -1.29739732e-01 -3.29014480e-01 +1.28216654e-01 -1.28063530e-01 +1.94041520e-01 +1.16978697e-01 -4.05571610e-01 -1.69787467e-01 +2.75480390e-01 +3.82728606e-01 +3.12016726e-01 -3.18866104e-01 +2.76732624e-01 +1.65834054e-01 +1.31579801e-01 -2.19530895e-01 -4.45750629e-04 -5.07563472e-01 +2.90933102e-01 -1.27597556e-01 -4.83075231e-01 -5.78130111e-02 -5.46473637e-02 -2.26380169e-01 -5.83092533e-02 +9.30652674e-03 -3.54412906e-02 -1.21385053e-01 -3.66348661e-02 +2.34165322e-02 +2.54340339e-02 -4.34299320e-01 +5.29684238e-02 +1.58202946e-02 -7.85764009e-02 -6.91001892e-01 +2.64682621e-01 +1.00970350e-01 -3.28075960e-02 +5.02706394e-02 -7.22901383e-03 +1.97791874e-01 -9.77519751e-02 -1.33186027e-01 +4.43585999e-02 +4.49688971e-01 -6.13562316e-02 -1.90935403e-01 -2.00940911e-02 -1.39081433e-01 +1.90541707e-02 +1.35062307e-01 +7.59072527e-02 -8.03188458e-02 -5.12724631e-02 +6.90264180e-02 -1.67817280e-01 -9.77683887e-02 +7.03890696e-02 +2.46396344e-02 -4.39073294e-02 +1.04830168e-01 +1.75132200e-01 +1.02777995e-01 -1.52417645e-01 +1.56793132e-01 +3.68991792e-02 -5.62779699e-03 +5.72671555e-03 +1.49194449e-01 +1.94951877e-01 +3.13718244e-02 +2.18232319e-01 -3.42025869e-02 -3.49528082e-02 +4.48549502e-02 -3.33385259e-01 +1.22686304e-01 -1.20921947e-01 -2.19237030e-01 +9.96572375e-02 -2.52832752e-02 +5.07903062e-02 -1.41181250e-03 -1.38730913e-01 +6.74261078e-02 -6.35694433e-03 -2.79228181e-01 +2.68865861e-02 -1.05392627e-01 -1.50600299e-01 +1.61433712e-01 -2.21719876e-01 -1.42327860e-01 -1.19020939e-01 +1.55123010e-01 -4.63645384e-02 -8.90209377e-02 -4.79644425e-02 -1.37760311e-01 -8.63935128e-02 -1.41750813e-01 -3.57462950e-02 +1.23149035e-02 -8.55905265e-02 -1.83079988e-01 -5.87066300e-02 -1.50033221e-01 -1.00181662e-02 +9.23875421e-02 +1.20148756e-01 +3.32575366e-02 -4.42352831e-01 -7.88596198e-02 -2.09448729e-02 -2.33603865e-01 -5.60402945e-02 +1.53397098e-01 -1.46074340e-01 -9.10681114e-02 -4.27502424e-01 +2.58914411e-01 -5.44328950e-02 +8.05260316e-02 -3.01622357e-02 +1.23894155e-01 -7.05431476e-02 -9.36269462e-02 -1.30786758e-03 +5.24044186e-02 +1.74454212e-01 -9.99007225e-02 -6.80462420e-02 -8.84687826e-02 +5.76591194e-02 -5.73655628e-02 -1.52622864e-01 -1.48176566e-01 -2.29422990e-02 +1.40245020e-01 +3.50072943e-02 -1.73960850e-01 -1.59937546e-01 +1.86326578e-01 -4.17026738e-03 -7.21214637e-02 -3.35964561e-01 -7.95683861e-02 +6.85028285e-02 +1.09152950e-01 -2.28034660e-01 +2.37127751e-01 -1.97092488e-01 -2.68576682e-01 -2.64706761e-02 -3.85233760e-01 +3.48284662e-01 -1.22816889e-02 +1.58651426e-01 -3.52037102e-02 -1.88756540e-01 -1.11046925e-01 -1.19886793e-01 -4.00582016e-01 -1.01906396e-01 -3.31123054e-01 -5.16649559e-02 +4.35220182e-01 -3.53096247e-01 +3.22717786e-01 -1.23245649e-01 -8.93397778e-02 +8.87810886e-02 -1.59397528e-01 -9.29325372e-02 -1.65738180e-01 -1.18915606e-02 -8.72304887e-02 +1.27180710e-01 +3.07080805e-01 +1.45103350e-01 -4.32209164e-01 -2.14831620e-01 -2.82762885e-01 +2.61028230e-01 -6.97995961e-01 -1.35314763e-01 +3.07070404e-01 -1.67022392e-01 +3.24980430e-02 +1.29908770e-01 +7.58337229e-02 +3.66654769e-02 +3.51145983e-01 -1.88063189e-01 +1.35073781e-01 +1.84420988e-01 +1.14394322e-01 +3.04024607e-01 -3.96100432e-03 -1.14371262e-01 -1.58413738e-01 +1.08253747e-01 -1.67474970e-01 +1.70652956e-01 -3.17485593e-02 -3.20820123e-01 -2.15746820e-01 +3.22067976e-01 +2.53653169e-01 +1.35647967e-01 -2.97957212e-01 +2.66364336e-01 +4.66734543e-02 +1.34716913e-01 -2.08176330e-01 +7.29348063e-02 -5.36343575e-01 +3.57823819e-01 -1.68825909e-01 -4.30500388e-01 -1.10714056e-01 +6.68224832e-03 -2.85802960e-01 +1.04347855e-01 -3.54641769e-03 -9.34348628e-02 -3.38617623e-01 -2.36696869e-01 +2.53017005e-02 +6.35245591e-02 -2.64713228e-01 +6.43527731e-02 -1.96247414e-01 -7.30433911e-02 -6.98844910e-01 +3.77703935e-01 +3.31590287e-02 -1.56576410e-01 +2.20699653e-01 +9.18890759e-02 +6.16162531e-02 -3.84642323e-03 -7.69790681e-03 +6.95456788e-02 +4.34756279e-01 -1.33735659e-02 -9.49620977e-02 -5.00065573e-02 -1.16901971e-01 +3.85764800e-02 +1.24124542e-01 +1.05196767e-01 -2.43336990e-01 -6.88474327e-02 -5.02647348e-02 -1.66340545e-01 -7.00423643e-02 +1.10847101e-01 +7.79037923e-02 -8.50538984e-02 +1.55479744e-01 +3.29531848e-01 +1.79236799e-01 -1.15010835e-01 -5.30828722e-02 -4.25503822e-03 -5.08794338e-02 +2.47838069e-02 +6.42905012e-02 +5.80316335e-02 +8.69361162e-02 +6.27812147e-02 -2.97405366e-02 -1.40610442e-01 +8.30895975e-02 -2.53080547e-01 -8.45176503e-02 +2.65794322e-02 -2.28896260e-01 +1.85421258e-01 -4.37066630e-02 +2.32573420e-01 -1.10085011e-01 -1.15620956e-01 -1.22675039e-01 +3.74612920e-02 -2.34651446e-01 +1.39544562e-01 -1.06499977e-01 -6.26842007e-02 +1.86755523e-01 -2.07676843e-01 -1.40006706e-01 -1.48882642e-01 +8.35893527e-02 +2.64401957e-02 -3.00403479e-02 -3.16198803e-02 -5.50697222e-02 +8.42104182e-02 -1.29634738e-01 -1.44513592e-01 +3.13157067e-02 +1.81098431e-02 -7.46380240e-02 -2.78720595e-02 -7.11809024e-02 +6.74397647e-02 +6.34972379e-03 +5.24309725e-02 -1.29889965e-01 -5.46178877e-01 -4.71811034e-02 +2.05239933e-02 -4.75161284e-01 -1.99041367e-02 +8.48571435e-02 +1.29356794e-02 -7.48963133e-02 -4.14188951e-01 +2.41264954e-01 -3.71871032e-02 +7.32377693e-02 +4.63069230e-02 +1.60035759e-01 -7.69432262e-02 +6.80389106e-02 -8.93639550e-02 -9.67813283e-02 +4.76965420e-02 +2.72273123e-02 -7.17521161e-02 -2.08235040e-01 +3.14128548e-02 -6.69174865e-02 +5.42087294e-02 -6.84726387e-02 -5.13617285e-02 +1.59148306e-01 +1.81637451e-01 +3.79252769e-02 -1.03122540e-01 +1.46830812e-01 +1.31439477e-01 -7.85940215e-02 -5.50308228e-01 -6.21637069e-02 +1.24832511e-01 -9.72630158e-02 -1.96591392e-01 +2.39389434e-01 -1.19792268e-01 -4.90136370e-02 -2.68098302e-02 -4.83780354e-01 +3.57769787e-01 -7.42081553e-03 +1.93161383e-01 +7.30172545e-02 -2.62264460e-01 -9.66902822e-02 -1.48328617e-01 -4.71803606e-01 -1.00923665e-01 -3.19716692e-01 -3.30410227e-02 +3.67784917e-01 -4.49285388e-01 +5.20630240e-01 -6.47538677e-02 +1.52228728e-01 +1.83343410e-01 -3.51167358e-02 -1.29653305e-01 -2.18084410e-01 +1.06201090e-01 +1.96401775e-02 +4.22375202e-02 +4.42064703e-01 +1.46950468e-01 -3.69012982e-01 -3.24168444e-01 -2.55942285e-01 +6.53927401e-02 -6.17000997e-01 -1.90788358e-01 +1.94354117e-01 -1.52139530e-01 -6.48941100e-02 -5.15027903e-02 +5.72402924e-02 +4.59317118e-02 +4.00086880e-01 -2.30438575e-01 +1.24755070e-01 +9.55326110e-03 -6.54946715e-02 +2.15117827e-01 +8.94129798e-02 +1.70694459e-02 -1.30913168e-01 +1.17654413e-01 -1.11645222e-01 +3.29876184e-01 +5.08735441e-02 -4.79740649e-01 -1.15954235e-01 +2.32346416e-01 +2.83337742e-01 +1.22047566e-01 -1.34870052e-01 +2.27895245e-01 +1.00098744e-01 +8.64055827e-02 -1.04550876e-01 +2.84200553e-02 -4.16702896e-01 +4.11082119e-01 -2.69071281e-01 -5.45463562e-01 -3.48371863e-02 -3.08500894e-04 -2.24813342e-01 -6.16152026e-03 -6.51580095e-02 +4.59045283e-02 -2.93589354e-01 -1.21741198e-01 +7.99671188e-02 +9.91480276e-02 -4.10691887e-01 -5.04340418e-02 +1.38960918e-02 -3.60043533e-02 -5.99299550e-01 +4.08915669e-01 +4.04359885e-02 -1.33788511e-01 +1.19471317e-02 -7.04229325e-02 +2.18554080e-01 +6.28168657e-02 -1.32486671e-01 +2.78070685e-03 +4.15459216e-01 -2.24139780e-01 -9.59387980e-03 +7.65365884e-02 -1.56724200e-01 -8.08417276e-02 +2.78901070e-01 +4.27290760e-02 -1.07396051e-01 -8.65006745e-02 -1.12644192e-02 -8.30266103e-02 +7.12820068e-02 +6.39148802e-02 -1.12266410e-02 +1.11194290e-01 +1.18247472e-01 +4.00837541e-01 +1.78689837e-01 -2.86443569e-02 +1.55254737e-01 -2.15513669e-02 -5.85847488e-03 -1.95466116e-01 +7.48642907e-02 +1.14010304e-01 +1.39221430e-01 +1.30906031e-01 -1.05855279e-01 -9.71486270e-02 -1.07272752e-01 -1.85420498e-01 +9.13270935e-02 -9.69241187e-02 -1.72129065e-01 +4.43506194e-03 +2.99380664e-02 +4.52466272e-02 -1.16943263e-01 -1.41717732e-01 -1.64781541e-01 -2.42032241e-02 -2.94372171e-01 -2.58965530e-02 -1.20529883e-01 -2.35733651e-02 +9.01310146e-02 -2.97273725e-01 -1.91688344e-01 -4.58245128e-02 +1.20024689e-01 -1.56374276e-01 -7.32485950e-02 +6.22412749e-02 +5.15074730e-02 -1.06824808e-01 -3.80964316e-02 -1.59621492e-01 -1.06101915e-01 -5.52020483e-02 -1.49678677e-01 -8.88096914e-02 -1.45437643e-01 -1.36282086e-01 +3.94613855e-02 +7.51127303e-02 -1.04809538e-01 -4.46629882e-01 -2.51910090e-01 -7.66064897e-02 -4.82305735e-01 -6.15253411e-02 +1.03978984e-01 -1.73532337e-01 -1.79870389e-02 -4.31010813e-01 +1.01930909e-01 +3.81058119e-02 +2.07038149e-01 -7.53158629e-02 +4.01598439e-02 +4.57800478e-02 -5.54433390e-02 -7.01349005e-02 -1.74252436e-01 +4.50447835e-02 -9.95362997e-02 -1.49226248e-01 -1.95519552e-01 -1.07454568e-01 -2.55234301e-01 -8.77920464e-02 -1.64739832e-01 -4.98720594e-02 +1.83650911e-01 +1.19278818e-01 -3.74151617e-02 -1.52883425e-01 +2.00769112e-01 -8.06069374e-03 -5.47500961e-02 -3.87321889e-01 -3.38454470e-02 +2.81498283e-01 +1.88410860e-02 -1.39408901e-01 +1.98615804e-01 -1.05102226e-01 -2.03665107e-01 +1.72601148e-01 -3.81206334e-01 +3.37604165e-01 -4.24766392e-02 +2.03683957e-01 -6.22548163e-02 -2.85435766e-01 +4.54236637e-04 -2.62191325e-01 -4.38580930e-01 -1.26585007e-01 -2.46797621e-01 -1.17001869e-02 +2.90873051e-01 -5.12102246e-01 +4.57522094e-01 -1.21152245e-01 +1.28161550e-01 +1.44578815e-01 -5.20328619e-02 -1.40376523e-01 -5.51983230e-02 -5.27081229e-02 -4.31940444e-02 -5.07368473e-03 +3.96892667e-01 +2.15289183e-02 -4.03769463e-01 -3.45908761e-01 -3.83985937e-01 +9.15264711e-02 -5.74057162e-01 -1.07092455e-01 +2.40183741e-01 -3.52031440e-02 +2.10470334e-03 -2.22139228e-02 -4.03868593e-03 -4.08229306e-02 +4.11896169e-01 -3.52206349e-01 +1.09930888e-01 +1.88502207e-01 +7.05506578e-02 +2.94244856e-01 -1.14789374e-01 -1.48924738e-01 -1.03777066e-01 +3.00667305e-02 -1.36869818e-01 +1.92428112e-01 +1.79494724e-01 -3.68583590e-01 -1.47713631e-01 +1.52129948e-01 +3.84848446e-01 +2.06900343e-01 -3.34700912e-01 +3.13071787e-01 +1.41281798e-01 +3.79889421e-02 -6.93156272e-02 -6.69340640e-02 -5.38608074e-01 +4.36034769e-01 -2.86677301e-01 -5.58924258e-01 +2.88361497e-02 +1.24219008e-01 -2.58290887e-01 +5.52047491e-02 +6.83216974e-02 +3.18712555e-02 -1.65195003e-01 -1.31403342e-01 -6.12559821e-03 -8.41268599e-02 -2.46093690e-01 +5.56092001e-02 -1.48096815e-01 +7.50006730e-05 -6.72037125e-01 +2.80810684e-01 -6.12500049e-02 -1.62820354e-01 +1.26397878e-01 +2.20498722e-02 +1.24526486e-01 -1.06188625e-01 -2.08543658e-01 +2.30902523e-01 +2.75291383e-01 -1.52652472e-01 +2.16983017e-02 +7.91113749e-02 -1.22649349e-01 +7.10420385e-02 +2.17923969e-01 -5.38826874e-03 -2.35546038e-01 -9.64985192e-02 +7.28218332e-02 -7.90306851e-02 -4.59997728e-02 +1.15669683e-01 -1.54763848e-01 -7.12920949e-02 -1.14342272e-02 +2.16541514e-01 +9.38355643e-03 -4.05710451e-02 -4.77988161e-02 -1.18034206e-01 -1.78872213e-01 -1.73503731e-03 +1.18524887e-01 +1.17585003e-01 -1.30663970e-02 +9.40200835e-02 -1.77711323e-01 -5.60812503e-02 -1.67394623e-01 -1.73627064e-01 +5.71095152e-03 -2.80383751e-02 -1.97353035e-01 +1.55983984e-01 -1.62309289e-01 +2.11888164e-01 -6.49323910e-02 -1.61712170e-01 -3.72504443e-02 +1.06219001e-01 -1.16023175e-01 +1.46037027e-01 +4.93145324e-02 -9.10769179e-02 +2.10693404e-01 -2.50094622e-01 -1.79166064e-01 -2.78660897e-02 +1.13352112e-01 -4.76378873e-02 -5.54389656e-02 +1.80739135e-01 +4.52378616e-02 +4.27101031e-02 -8.73417929e-02 -1.60410032e-01 -6.34060055e-02 +1.00052804e-01 -2.25271344e-01 +1.17197447e-01 +1.55617166e-02 -6.33214116e-02 +1.40335038e-01 +2.32221074e-02 +8.31259042e-02 -6.03360116e-01 -6.86240569e-02 -7.64361992e-02 -2.43629515e-01 +4.04843017e-02 +1.07690938e-01 -1.80371806e-01 -8.60532920e-04 -5.83310485e-01 +4.68651913e-02 -9.14578908e-04 +2.27763459e-01 +9.01113916e-03 +4.77204397e-02 -7.19232485e-02 +9.23230648e-02 +3.04152314e-02 -1.80314645e-01 +4.89426740e-02 -6.67912066e-02 -2.50898719e-01 -2.43586749e-02 -1.33833379e-01 -1.57666713e-01 -2.32359469e-02 -9.95604694e-02 -1.43213674e-01 +4.09091264e-02 +3.89495231e-02 -1.27070606e-01 -1.75291494e-01 +2.83495411e-02 +1.53952688e-01 -5.73957246e-03 -3.86591256e-01 +4.99351472e-02 +2.97005564e-01 +8.67692158e-02 -2.05523595e-01 +2.59111583e-01 +4.40986492e-02 -2.03840584e-01 +1.44570500e-01 -4.19803560e-01 +4.43533897e-01 +5.84985837e-02 +1.57160178e-01 +7.95739889e-02 -6.18872643e-02 -4.30363379e-02 -1.24135248e-01 -5.21119893e-01 +3.75143923e-02 -1.56836808e-01 -8.49920586e-02 +2.09040835e-01 -5.42331159e-01 +5.10728478e-01 +4.15722840e-02 +1.31966963e-01 +7.17638880e-02 -3.34702916e-02 -2.44766295e-01 -1.62988022e-01 -1.16664924e-01 -1.00462556e-01 +5.11831567e-02 +3.73623490e-01 +1.14928372e-01 -2.87993282e-01 -3.71162176e-01 -4.02418077e-01 +1.20562181e-01 -5.37852883e-01 -2.48362422e-01 +4.01114672e-01 -2.24985734e-01 -8.25473145e-02 -6.65723681e-02 +3.55150108e-03 -8.66303146e-02 +4.23752725e-01 -2.56176829e-01 +3.56678724e-01 +8.95560309e-02 +3.13180648e-02 +2.59227902e-01 +8.76304880e-02 +3.79341878e-02 -3.50006402e-01 -3.12858410e-02 -2.52285093e-01 +1.69390500e-01 +9.78032127e-02 -3.82663757e-01 -8.40498433e-02 +1.53061599e-01 +4.49121505e-01 +7.83333406e-02 -2.96873778e-01 +1.86990350e-01 -2.53629461e-02 +1.45243630e-01 -2.46337608e-01 -7.46294558e-02 -4.26645666e-01 +2.72008657e-01 -1.28898010e-01 -5.19548535e-01 -1.60400435e-01 +1.54324502e-01 -2.52558053e-01 -4.41690441e-03 +1.35178089e-01 +5.21389535e-03 -3.46962154e-01 -4.03993912e-02 -1.37266532e-01 -6.78431541e-02 -3.79781991e-01 +2.77588945e-02 -1.76461026e-01 +1.09371781e-01 -6.40742064e-01 +2.00603843e-01 -2.32424103e-02 -8.15614164e-02 +1.71601310e-01 +1.20869994e-01 +1.32264882e-01 +1.04239680e-01 -1.17267437e-01 +1.85328633e-01 +3.48392069e-01 -2.42273867e-01 -3.76615254e-03 -1.24407709e-02 -3.70249934e-02 +1.00108661e-01 +2.59965569e-01 -9.07165334e-02 -3.29362005e-02 -1.00642726e-01 +1.19433485e-01 -1.63040739e-02 +9.63830296e-03 +6.01122007e-02 -2.97388062e-02 +1.12708760e-02 +3.31976153e-02 +2.99945235e-01 +1.00720681e-01 -1.55260220e-01 +2.20540091e-02 -9.01899859e-02 -1.17221922e-01 -1.53470084e-01 -6.12816066e-02 +2.55316764e-01 -5.10487184e-02 +1.72917768e-01 -1.48496494e-01 -2.75155366e-03 -5.07089905e-02 -2.16513410e-01 -1.20526664e-01 -1.16529137e-01 -2.85962999e-01 -1.40928678e-04 -9.18988362e-02 +6.17935993e-02 -1.29530653e-01 -2.04466969e-01 -1.52302831e-01 +1.45641789e-01 -2.26368636e-01 +1.69022307e-01 +3.16141173e-02 -2.06132308e-01 +1.34357050e-01 -3.24499696e-01 -2.90058762e-01 -1.00132771e-01 -5.53242415e-02 +5.77465072e-02 -8.55299085e-02 +1.43702954e-01 -1.65478826e-01 -1.39129058e-01 -7.82580003e-02 +4.14449349e-02 -1.15945965e-01 -1.41397357e-01 +3.79092712e-03 -3.71406861e-02 +3.88605222e-02 -1.15083098e-01 +1.90014675e-01 -6.75185060e-04 +6.70424998e-02 -4.66661096e-01 -2.02325463e-01 -1.39601126e-01 -2.48366654e-01 +4.16832566e-02 +5.15462309e-02 -2.00175419e-01 +7.83607289e-02 -4.61200744e-01 +1.12743489e-01 +1.01920376e-02 +2.44409606e-01 +8.30858573e-02 +6.91725537e-02 -1.77795589e-01 +1.21864798e-02 -4.64367196e-02 -1.03503391e-01 +1.43196970e-01 -4.65179943e-02 -1.94645733e-01 -1.12418912e-01 -9.79010910e-02 -2.07248479e-01 +2.75688190e-02 -8.25149566e-02 -1.43754408e-02 +9.95109081e-02 -2.08494551e-02 -5.31609990e-02 -1.93226531e-01 +1.11637533e-01 -3.56341503e-03 +2.90499162e-03 -3.72198761e-01 +6.20404743e-02 +1.09585494e-01 +8.21509436e-02 -8.27584788e-02 +1.90006509e-01 -1.98869213e-01 -8.49116668e-02 +1.71503648e-01 -5.58029175e-01 +2.87651241e-01 +1.47581371e-02 +2.12398097e-01 -8.66564270e-03 -1.71630159e-01 -5.48224263e-02 -2.58939117e-01 -5.03094614e-01 -1.38803478e-03 -1.94912702e-01 -8.87665078e-02 +4.38201368e-01 -5.49069703e-01 +5.11313677e-01 -1.28988712e-03 -6.22739606e-02 +1.75088555e-01 -5.12932725e-02 -2.26292282e-01 -1.66858569e-01 +9.43570510e-02 +1.11919224e-01 +2.10490763e-01 +3.70579004e-01 +2.35757716e-02 -2.07553238e-01 -2.51032650e-01 -2.23988533e-01 +9.92159471e-02 -5.78016222e-01 -2.38534987e-01 +3.84312660e-01 -2.49204859e-01 -1.97719447e-02 +1.47431344e-01 -1.25793576e-01 -1.39590725e-01 +2.08792374e-01 -3.17151546e-01 +2.69545317e-01 +2.82581430e-02 +9.23721790e-02 +3.24028045e-01 -1.22791730e-01 -3.77985241e-04 -1.92217320e-01 -5.86471632e-02 -1.59955189e-01 +1.29113585e-01 +2.23656166e-02 -4.20878202e-01 -1.86469313e-02 +2.92237639e-01 +4.71450955e-01 +1.82696089e-01 -2.73552984e-01 +1.69709906e-01 +3.10118292e-02 +7.54400156e-03 -2.15531275e-01 -4.56956886e-02 -5.05949974e-01 +2.28061497e-01 -2.53066123e-01 -4.74345893e-01 -7.12373853e-03 -6.78411201e-02 -4.09605563e-01 -4.19680923e-02 +4.79756221e-02 +5.80402650e-02 -1.02416202e-01 -1.35603711e-01 -2.91889254e-02 -5.63643500e-02 -4.10787374e-01 +1.45638898e-01 +5.07024415e-02 -3.98630723e-02 -4.76468086e-01 +2.05872208e-01 +1.26193017e-01 -9.27826390e-03 +8.22583139e-02 +5.09686060e-02 +1.51159495e-01 -9.58860964e-02 +2.34597567e-02 +1.89647138e-01 +2.74388671e-01 -1.27507627e-01 -3.53883207e-02 -1.13328703e-01 -1.52588710e-01 +3.83821465e-02 +4.72065024e-02 -1.25907302e-01 -1.18188784e-01 +1.81438942e-02 +1.05241470e-01 -9.17934254e-02 -1.20451689e-01 -8.65756534e-03 -1.35190159e-01 -1.18698515e-01 +1.58424780e-01 +2.03362033e-01 +5.52858822e-02 +6.98905960e-02 +1.39069095e-01 -2.24220231e-02 -1.24446541e-01 -1.21095099e-01 +1.21904440e-01 +1.03387788e-01 +5.50299995e-02 +3.49912830e-02 -1.96553722e-01 -1.87614843e-01 +6.81812540e-02 -1.39560595e-01 +1.00001447e-01 +5.62778823e-02 -3.27060640e-01 +3.31890099e-02 -1.00967651e-02 +7.55257905e-02 -7.34029859e-02 -7.78285563e-02 -1.50395464e-02 +9.31758955e-02 -3.11474711e-01 +1.18856870e-01 +5.96390339e-04 -5.93291558e-02 +2.04151049e-01 -2.34971449e-01 -3.03350538e-01 -4.10981104e-02 +8.37727413e-02 -7.18265995e-02 -3.78706157e-02 -4.29643057e-02 +8.81299470e-03 +5.33201583e-02 +1.22473165e-02 +8.06170478e-02 -1.59296826e-01 +3.33028100e-02 -1.08697906e-01 +1.39131591e-01 -1.53396770e-01 +5.13699017e-02 +7.14251399e-02 +8.95882919e-02 +1.10406084e-02 -5.24743736e-01 -1.73360258e-01 -1.01234891e-01 -2.64167756e-01 +7.92281926e-02 -4.34683412e-02 -1.94012299e-01 -1.99449360e-02 -5.98304272e-01 +1.71412304e-01 -1.34580538e-01 +2.29356959e-01 +1.70004722e-02 -4.08639055e-04 -1.32514626e-01 +9.23859626e-02 -1.42664313e-01 +2.40417197e-02 +5.03009446e-02 -7.33453184e-02 -1.77594125e-01 +3.42217945e-02 +1.98808964e-03 -2.01481313e-01 -9.14920643e-02 -7.53102824e-03 +4.70587350e-02 +1.62207603e-01 +1.80570111e-01 -1.37113063e-02 -1.98441103e-01 +4.36245389e-02 +7.67707899e-02 +8.63303468e-02 -5.49403310e-01 -5.32279164e-02 +1.80537552e-01 +3.34944315e-02 -8.93736854e-02 +1.95246175e-01 +2.25578826e-02 -2.21946329e-01 +1.34616932e-02 -4.49684620e-01 +3.02709460e-01 +4.42206115e-02 +2.05787197e-01 -4.18323688e-02 -1.34999081e-01 -9.22998041e-02 -3.25464159e-01 -3.00334394e-01 -1.57826692e-01 -3.34522307e-01 +1.11244582e-01 +4.12112117e-01 -5.02503037e-01 +5.54224253e-01 -1.80304199e-01 +6.56267535e-03 +3.32904719e-02 +6.58096299e-02 -1.25602767e-01 -5.99173419e-02 +7.69841895e-02 -8.99298042e-02 +1.98495239e-01 +4.35912371e-01 +2.32076690e-01 -3.11938018e-01 -2.66991466e-01 -3.60905588e-01 +2.13965505e-01 -5.23393095e-01 -1.05690241e-01 +1.97624654e-01 -4.20415699e-02 +3.49145085e-02 +4.39138822e-02 -8.28412324e-02 -2.12082155e-02 +2.49565497e-01 -3.13895106e-01 +1.97713882e-01 +1.42992154e-01 +1.29828760e-02 +3.14662248e-01 -1.01168789e-01 -5.67772202e-02 -2.14885145e-01 -7.17250556e-02 -1.56853214e-01 +1.45958960e-01 +1.76604763e-01 -4.53414947e-01 -3.30555439e-02 +3.08757067e-01 +3.40467900e-01 +2.16352180e-01 -1.80478469e-01 +2.67523050e-01 +5.15271127e-02 +1.38169989e-01 -1.06154837e-01 +4.22830768e-02 -2.99658149e-01 +4.49871570e-01 -3.18507969e-01 -5.53613365e-01 -9.82223973e-02 +1.20100835e-02 -4.07007396e-01 +4.04858217e-02 +2.32308824e-02 +2.96342839e-02 -2.01705918e-01 -8.38995352e-02 -6.71066269e-02 +1.14700392e-01 -4.62749511e-01 +7.61849806e-02 -7.92903751e-02 +1.04404315e-01 -6.83318496e-01 +3.56549233e-01 -9.22889933e-02 +8.21805149e-02 +2.97813304e-02 +2.78047565e-02 +2.05061406e-01 -5.02751544e-02 -1.59824733e-02 +1.38058275e-01 +2.50068069e-01 -2.49559268e-01 -1.24827571e-01 +7.11790845e-02 -2.67620068e-02 +2.60503171e-03 +1.68227732e-01 +5.44242375e-02 -9.92764384e-02 -1.26169622e-01 +8.55588689e-02 -1.01599507e-01 -4.30941582e-02 -6.73508495e-02 -7.54076242e-02 +9.97151807e-02 +1.53483018e-01 +3.57147515e-01 +2.37099007e-02 -1.41890794e-02 -5.66924624e-02 -1.40562177e-01 -1.18187875e-01 -9.40302387e-02 -6.30736053e-02 +1.33119747e-01 +6.48132414e-02 +3.49312387e-02 -2.45345592e-01 -2.08158091e-01 -1.32159844e-01 -1.49198279e-01 +8.54240730e-02 -7.16713890e-02 -2.89332926e-01 +4.98736240e-02 +4.65253294e-02 +2.38197118e-01 -1.88247666e-01 -1.85420156e-01 +2.95493249e-02 +1.20757252e-01 -2.72066981e-01 +1.82104483e-01 +6.51551262e-02 -2.39191487e-01 +2.38407418e-01 -2.05044791e-01 -1.60263702e-01 -1.78634927e-01 -2.77033076e-02 -2.80489028e-03 +7.64747560e-02 +1.82734221e-01 -1.79367244e-01 -1.39018551e-01 -3.80518474e-02 -9.15187374e-02 -1.10837957e-02 -3.03844567e-02 -1.11049607e-01 +7.01690279e-03 -1.76421985e-01 -1.27811760e-01 +1.25210196e-01 +2.56081242e-02 +3.94053012e-02 -6.59816682e-01 -2.36956716e-01 +3.25461850e-02 -3.18899423e-01 +1.54975548e-01 +5.31027268e-04 +5.65190613e-02 +8.50809738e-02 -3.62266093e-01 +5.11437841e-02 -1.25430000e-03 +1.85705140e-01 -3.06299496e-02 +2.05867946e-01 -1.65690720e-01 +6.54311106e-02 +4.01209900e-03 -8.54652561e-03 +4.46459092e-02 -5.35621308e-02 -2.24921014e-02 +1.70020387e-02 -1.41613940e-02 -7.73393735e-02 -2.27009952e-02 -1.76921770e-01 -8.75476450e-02 +8.94773751e-03 +5.48009239e-02 -6.46057278e-02 -1.00085028e-01 +3.41040529e-02 +1.19722597e-01 -1.74860973e-02 -3.40962172e-01 -1.10882595e-01 +6.93418682e-02 -2.89010666e-02 -1.25058033e-02 +2.38667473e-01 -3.65390815e-02 -1.85617983e-01 -7.71258548e-02 -5.63601851e-01 +3.73580396e-01 +1.83474466e-01 +1.15330126e-02 +1.41853049e-01 -3.54165137e-02 -3.66777144e-02 -1.66524544e-01 -4.88427937e-01 +3.08081582e-02 -1.67185411e-01 -7.17565194e-02 +2.79624164e-01 -5.39514065e-01 +5.39063573e-01 -1.17074452e-01 +1.06286258e-01 +7.85793662e-02 +5.00550084e-02 -1.84124023e-01 -1.06142230e-01 +8.17494914e-02 -2.12821364e-02 +2.19209075e-01 +3.88835490e-01 +9.38170776e-02 -3.97759527e-01 -2.13049769e-01 -2.73851156e-01 +6.67021796e-02 -6.61888540e-01 -1.03370532e-01 +2.29858786e-01 -1.96663931e-01 -3.69118042e-02 +5.64800389e-02 -4.39481959e-02 -8.38394985e-02 +3.87928188e-01 -2.68890262e-01 +2.90946603e-01 +8.89391378e-02 +2.41250750e-02 +1.43687174e-01 -1.08996831e-01 -1.03973836e-01 -2.50312805e-01 -1.37646748e-02 -5.51440939e-02 +3.50350440e-01 +1.05830513e-01 -3.49890381e-01 -3.00145391e-02 +1.62173063e-01 +4.38021332e-01 +2.77648032e-01 -2.71373808e-01 +2.79087961e-01 +1.52196005e-01 -6.95841387e-03 -2.26125762e-01 -7.61892349e-02 -4.66348618e-01 +4.57140237e-01 -1.61014065e-01 -3.79953861e-01 -5.79774864e-02 -5.32890484e-02 -2.15209424e-01 +1.07941434e-01 -4.27061394e-02 -1.50882840e-01 -2.71689385e-01 -4.20229547e-02 +2.57080887e-02 -6.60108402e-03 -2.53926069e-01 -3.64121534e-02 -1.73528809e-02 +8.89411010e-03 -4.81032073e-01 +2.56424516e-01 -3.98951955e-02 -1.40530422e-01 +8.33908767e-02 -6.99440613e-02 +1.00247025e-01 +1.71250273e-02 +9.49380472e-02 +5.09319231e-02 +4.26282018e-01 -2.60590076e-01 +1.61224887e-01 -2.59357601e-01 -4.49427485e-01 -2.16921922e-02 -1.99282646e-01 +3.29582766e-02 -9.84512791e-02 -5.13497114e-01 +3.23351324e-01 -4.63615537e-01 -4.10990696e-03 +2.35407218e-01 -1.38524592e-01 -7.12150037e-02 -1.48628384e-01 +1.18911408e-01 -1.42258346e-01 +2.07298808e-02 +6.74803704e-02 +6.95751831e-02 -2.22307056e-01 +1.00484587e-01 -3.37856799e-01 -1.46245107e-01 +2.86492318e-01 +2.66160280e-01 +1.55254021e-01 +2.07767278e-01 -2.66690463e-01 +5.32038510e-01 -3.72983456e-01 -2.02344894e-01 +1.33917928e-01 -3.49461474e-02 -4.03910354e-02 +1.24202073e-01 -2.68102646e-01 +1.75628752e-01 +3.87641370e-01 -4.05269749e-02 +3.13101262e-02 -7.85829350e-02 -1.85363263e-01 -2.20780492e-01 -1.65590361e-01 +3.54979336e-02 -3.50745678e-01 -1.69585571e-01 +3.54375951e-02 -1.96550488e-01 -6.18896261e-02 -7.74665847e-02 +1.48495510e-01 +5.36548533e-02 +1.99287459e-01 +2.95559406e-01 +1.45562559e-01 -1.25587825e-02 -3.11706632e-01 +5.61671257e-02 -3.19529206e-01 +8.74380320e-02 +5.19436419e-01 +1.32620171e-01 +3.87533009e-02 +9.65816081e-02 +1.30725265e-01 -5.62966056e-02 -1.38092749e-02 +2.16987595e-01 -1.62299439e-01 +1.70460157e-02 -1.56779617e-01 +1.63169518e-01 +3.37549448e-02 -5.99075109e-02 -3.90244015e-02 -1.08413249e-01 +1.46341518e-01 +2.16107797e-02 +1.59045070e-01 +3.90153706e-01 -4.57129091e-01 -3.60122293e-01 -2.56138772e-01 +5.89642022e-03 -2.40909189e-01 +2.32925162e-01 -5.31937405e-02 -9.95339006e-02 +1.85402870e-01 -1.62215158e-02 +7.40168914e-02 -1.82669207e-01 +1.20322041e-01 -1.32990271e-01 -7.89688975e-02 -3.35792869e-01 +9.23114493e-02 -6.61641836e-01 +9.80303660e-02 -4.94328104e-02 -8.99454281e-02 +4.38119061e-02 -5.35778627e-02 +1.05420761e-01 -1.37798801e-01 -3.77682686e-01 -2.70005524e-01 +2.26122677e-01 -1.65187329e-01 +1.53993949e-01 -1.47611141e-01 -1.38765574e-01 +5.25241435e-01 -3.05211395e-01 +9.62417275e-02 -4.63064350e-02 +2.68620282e-01 -2.47025043e-01 +1.41443819e-01 +3.45858812e-01 +2.99980462e-01 -2.17056051e-01 -8.52701217e-02 +1.85622603e-01 +1.95672929e-01 -2.72926360e-01 +5.64531796e-02 -2.41101749e-04 -1.55548742e-02 -2.22528189e-01 +9.84691381e-02 -8.86237025e-02 +8.26180279e-02 -5.43066978e-01 -1.13304235e-01 -7.53160343e-02 +2.83163518e-01 +6.97814748e-02 +1.45192429e-01 +7.39718378e-02 -1.31044060e-01 +1.11497656e-01 +3.38121623e-01 -5.09208776e-02 +1.08240791e-01 -4.89549488e-01 -2.52064943e-01 +1.83804303e-01 +6.49889605e-03 +2.77483044e-03 +2.48934269e-01 +2.59104241e-02 +4.09769714e-01 +1.42687544e-01 +4.07204509e-01 +9.91597995e-02 -2.98683327e-02 -5.05982995e-01 -1.75277829e-01 +2.68741041e-01 +1.15695395e-01 -2.02073500e-01 -1.78598955e-01 -1.68566793e-01 -2.26875246e-01 -3.19179028e-01 +3.78176033e-01 -3.18525851e-01 -1.27465582e+00 +3.37760113e-02 -2.62441356e-02 +5.27030468e-01 +1.43858910e-01 +8.49015772e-01 +5.99495657e-02 +2.88866103e-01 -2.82594524e-02 +1.23390295e-01 +1.33329213e-01 +2.32167959e-01 +2.49543022e-02 +1.07480720e-01 -2.81551272e-01 +1.05711341e-01 +4.25143600e-01 -7.02689663e-02 +9.88319293e-02 -3.95180613e-01 +3.05793971e-01 +7.15623945e-02 -5.72501898e-01 -1.92098156e-01 +6.11912429e-01 -2.99654484e-01 +2.49926656e-01 -1.16932072e-01 -1.01547711e-01 +1.89534295e-02 -4.15686257e-02 -5.46261072e-01 -1.03153013e-01 +1.70284405e-01 +1.56504154e-01 +7.05591366e-02 -1.18608149e-02 +2.04428643e-01 +7.08218887e-02 -7.34145939e-02 -2.96225641e-02 +1.52664036e-01 -3.37403454e-02 -4.53430772e-01 -5.96896075e-02 +3.06942105e-01 +9.51369628e-02 -6.26305416e-02 -1.58195235e-02 -3.23724478e-01 -2.40091503e-01 -2.87984103e-01 +2.02841774e-01 -5.55259287e-02 -2.31934041e-01 -1.44976765e-01 -2.20249996e-01 -3.20727140e-01 -1.94378003e-01 -7.17302710e-02 +8.51535797e-02 -1.95073619e-01 -1.31148279e-01 -1.32781282e-01 +2.14073937e-02 +7.32105598e-02 +2.24785209e-02 +4.84492108e-02 -1.58409793e-02 +1.84713885e-01 -2.33326964e-02 +2.05530718e-01 -4.00220826e-02 +1.44270018e-01 -1.67097777e-01 -1.09799251e-01 +3.33820403e-01 -9.61024910e-02 -1.58582792e-01 -1.39316020e-04 +2.20224708e-01 +3.95175606e-01 +2.43565112e-01 +1.12614632e-01 +2.31793690e-02 +2.59890646e-01 +1.08219251e-01 -4.95133884e-02 +3.40539753e-01 +2.29170293e-01 -1.78363115e-01 -2.42106333e-01 +1.23721056e-01 +3.94292057e-01 -4.63576540e-02 -4.03639764e-01 -3.60389911e-02 +3.79629098e-02 +7.27317408e-02 -9.40510351e-03 +5.03927022e-02 -4.26802710e-02 +1.99307173e-01 -4.64661330e-01 +9.99327078e-02 -1.20595627e-01 +1.25167534e-01 +2.41921231e-01 -3.29697579e-02 +1.30618826e-01 +1.45356447e-01 -4.08155352e-01 +5.34767620e-02 -2.53169179e-01 +5.25115356e-02 -1.16195820e-01 +4.86984968e-01 +3.77773158e-02 +3.16187918e-01 +1.89050939e-02 -2.58858860e-01 -4.93169315e-02 +8.54466408e-02 +1.07982323e-01 -2.06147328e-01 -1.98021218e-01 +5.68468511e-01 +1.44919842e-01 +3.74986157e-02 -3.76496837e-02 +1.47460029e-01 -2.45087281e-01 +3.34472656e-01 +6.63646609e-02 -2.92889535e-01 +3.27699691e-01 +7.79608667e-01 -7.95713277e-04 -1.40554592e-01 +2.74347335e-01 +2.84569971e-02 -7.95604363e-02 +5.26226580e-01 +2.13770807e-01 -5.25436521e-01 +4.69350874e-01 +3.23999375e-02 -3.97355944e-01 +2.83768415e-01 -2.94944555e-01 +4.38630313e-01 +3.35342795e-01 -6.09637648e-02 +3.80179971e-01 -1.72235236e-01 +1.69736072e-01 -2.93477565e-01 +1.65510952e-01 +1.86738782e-02 -1.21966198e-01 -1.48953706e-01 -7.03931451e-02 -2.02828392e-01 -2.56473601e-01 -3.29274684e-01 -5.51269710e-01 -3.19485694e-01 -5.70413545e-02 +3.21822733e-01 -3.77963781e-01 -5.96772544e-02 -2.41652980e-01 -3.49481344e-01 +9.64456499e-02 -7.73052692e-01 -2.18680158e-01 +5.04709408e-02 -2.44885623e-01 -2.33070835e-01 -3.55976045e-01 +2.65057474e-01 -1.81009188e-01 +3.00769713e-02 +8.99632946e-02 +8.18437785e-02 +2.99453020e-01 +1.04276702e-01 -5.43746613e-02 -8.92900676e-02 +4.24467802e-01 -3.15314174e-01 -1.80891693e-01 -4.79867101e-01 +1.52383909e-01 -1.44022137e-01 +8.89837861e-01 +3.75148281e-02 +7.69754127e-02 -5.56523427e-02 +2.59971023e-01 -4.11625326e-01 +6.39259815e-01 +6.90207243e-01 +1.20807752e-01 +3.40575695e-01 -1.33587033e-01 +8.94832239e-02 -2.52946377e-01 -4.75139841e-02 -1.35306567e-01 +2.91663259e-01 -4.27588791e-01 -1.90234572e-01 -2.75731653e-01 +2.57123611e-03 +1.37790948e-01 -9.86756906e-02 +2.43069872e-01 -9.15292680e-01 +1.51957363e-01 -2.18739197e-01 -2.13860586e-01 -7.83334896e-02 -3.60857606e-01 +1.70364276e-01 +1.02859534e-01 +4.10147160e-02 -5.40168464e-01 -9.60467160e-02 -4.22480740e-02 +2.81344771e-01 -6.37154341e-01 -7.96465501e-02 +2.24905722e-02 -1.31800517e-01 +2.88240910e-01 +2.87072659e-01 +1.64064050e-01 +1.97810456e-01 +2.23849624e-01 -1.95060655e-01 +1.27873709e-02 -2.37587780e-01 +2.13547438e-01 +3.71128246e-02 +5.30151010e-01 -5.21501377e-02 -1.20607920e-01 -1.64192960e-01 +1.67251125e-01 +1.32577762e-01 -9.31172296e-02 -5.21867722e-02 +6.79891482e-02 -1.33982942e-01 +3.32680762e-01 +1.61995783e-01 +2.77429074e-01 +1.73558339e-01 +1.06332041e-01 -1.08395010e-01 -7.73905143e-02 +5.19696534e-01 -2.26473436e-01 +2.97482967e-01 +8.22916105e-02 -2.26791147e-02 -1.91843450e-01 -2.73145825e-01 -3.63796651e-01 -4.19232488e-01 -2.60233134e-02 -1.51299253e-01 -1.07213594e-01 +3.38159978e-01 +2.00392365e-01 +2.67779112e-01 -1.62076265e-01 +2.16175735e-01 -9.54089984e-02 -2.71139801e-01 +1.22212686e-01 -2.46325389e-01 -1.53600633e-01 +1.25189662e-01 -3.01843472e-02 -2.12807983e-01 -1.54577106e-01 -7.05115423e-02 -3.02197367e-01 +7.22445697e-02 -2.23303288e-01 +4.41889584e-01 -1.92719832e-01 +2.04465970e-01 +8.86292219e-01 -3.76168042e-02 -5.41481264e-02 -4.87527430e-01 -1.52022457e-02 -3.13594867e-03 -2.15498284e-01 -2.91322976e-01 -1.59582883e-01 -1.85184330e-02 -4.32540402e-02 -3.44505191e-01 -1.85263474e-02 +1.17957301e-01 +2.81454176e-02 -1.04667038e-01 +1.66534945e-01 -2.70782888e-01 +1.08716205e-01 +1.56716391e-01 -2.54535913e-01 -2.28130847e-01 -6.67967275e-02 +1.43836141e-01 -4.61430326e-02 -1.43088102e-01 -8.82153958e-02 -2.32745305e-01 +1.48134366e-01 +1.00951038e-01 -1.08379900e-01 +3.99803780e-02 -5.07331006e-02 -9.58714038e-02 -3.34061146e-01 -6.32428676e-02 +4.75243956e-01 -3.49946380e-01 -1.94491044e-01 -4.90937173e-01 +1.04890298e-02 -3.66046280e-02 +2.02815339e-01 +3.22832555e-01 +1.16915368e-01 +1.96746692e-01 -4.03129160e-02 +4.47430760e-01 +5.17281778e-02 +1.22878209e-01 +3.39203179e-02 +2.76432514e-01 +2.86303192e-01 -6.66465759e-02 +2.26713538e-01 +3.60300720e-01 -3.44256938e-01 +5.69752157e-01 +2.48638913e-01 +2.73911744e-01 -6.61744535e-01 +8.35304856e-02 -9.96171590e-03 +1.03800453e-01 +2.77954489e-01 -2.99437582e-01 +2.25512818e-01 +3.99095803e-01 +4.10870910e-02 +3.99281621e-01 -5.43650687e-01 -1.00331381e-01 +4.56072669e-03 -9.83857751e-01 -3.18715304e-01 -2.05390900e-01 -3.42685521e-01 -2.32245490e-01 +3.60809453e-02 +2.01646745e-01 +8.52632336e-03 -2.37858236e-01 -2.61228323e-01 +4.64740157e-01 +3.46543342e-02 +3.25422496e-01 -3.81007671e-01 +2.03390673e-01 -1.78397685e-01 +9.80039388e-02 -7.96484873e-02 +1.11158259e-01 +4.92587954e-01 -2.72683740e-01 +2.33043641e-01 -1.11176200e-01 +8.75565410e-01 -5.51285684e-01 +2.24147722e-01 -1.08693920e-01 -4.28745031e-01 -7.14734569e-02 -4.09500934e-02 -3.06321114e-01 +1.94098786e-01 +4.51934695e-01 -8.42589736e-01 +1.55756650e-02 -5.34684300e-01 -2.73356229e-01 -2.14212120e-01 +1.57804452e-02 +1.13372259e-01 -9.29373503e-02 +3.36408466e-02 -3.99715453e-01 +1.49083465e-01 +1.84138671e-01 -3.14086556e-01 +8.35778415e-01 +3.27519655e-01 -3.64425570e-01 +2.55079046e-02 +3.96483362e-01 -4.47109304e-02 -4.82209057e-01 -2.21483968e-02 -2.83060037e-02 +4.40971367e-02 -8.57833922e-02 -1.68717667e-01 -1.85556829e-01 +6.15834296e-01 +6.66998774e-02 -2.51184911e-01 +3.40546131e-01 +1.32316500e-01 +2.29763299e-01 +4.95300330e-02 -2.87625901e-02 +9.84373614e-02 +3.42518426e-02 +2.63915271e-01 -1.32507339e-01 +4.07227218e-01 -1.94459751e-01 +7.34067196e-03 +4.16575998e-01 -2.74813436e-02 +1.31073847e-01 -3.50243568e-01 -1.20428570e-01 +1.50054485e-01 -3.49839687e-01 +1.18154094e-01 -4.12499517e-01 +3.81200761e-01 -1.19171739e-02 -2.22304150e-01 +4.76869881e-01 +1.89490646e-01 +2.44817242e-01 +2.82464266e-01 -1.50447652e-01 +2.41867930e-01 -8.93638059e-02 -2.05781590e-02 -6.05071604e-01 +2.46039391e-01 -7.70497993e-02 -7.47828633e-02 +2.82554597e-01 +3.93739827e-02 -2.63077557e-01 +9.19646025e-02 -7.78131634e-02 -9.71626788e-02 -3.89831424e-01 -2.15900615e-01 +1.07361846e-01 -4.82414424e-01 -5.87236248e-02 -3.72055955e-02 -8.93779546e-02 +9.13551301e-02 +1.02975637e-01 -4.46380749e-02 -2.28838623e-03 +1.96299002e-01 -2.33251587e-01 +2.60007560e-01 +2.63352245e-01 +8.11856538e-02 +2.13105120e-02 -5.58044374e-01 +1.20304137e-01 +7.36972690e-02 -1.93015233e-01 -3.45014520e-02 -8.35140469e-04 +2.00234696e-01 +1.12178870e-01 -2.59116348e-02 +8.47692862e-02 +2.58669443e-02 -3.69970977e-01 +3.49585384e-01 -5.39454758e-01 +1.37239054e-01 +1.07289009e-01 +1.73343316e-01 +2.75646865e-01 -7.36660883e-02 +1.13639891e-01 -2.32526083e-02 +3.90481770e-01 -7.44628087e-02 +3.47654521e-01 -7.62150735e-02 -1.79864317e-01 +2.70668149e-01 -2.77557433e-01 +1.26749769e-01 +8.48661885e-02 +1.74594238e-01 +5.32368839e-01 +1.10698298e-01 -5.54716587e-01 -1.72889773e-02 +1.44762859e-01 +4.48186100e-01 -1.52927384e-01 -2.10832760e-01 -2.54632652e-01 -3.63064617e-01 -9.56573039e-02 +1.10662952e-01 -7.02871323e-01 +8.03468376e-02 +2.05696121e-01 +4.24444824e-01 +1.35083526e-01 +3.59402329e-01 +2.87716955e-01 -1.41642854e-01 +3.60409081e-01 +6.31501153e-02 -1.95036948e-01 -6.24059588e-02 -8.19835663e-02 +2.81643569e-01 +4.33989525e-01 +6.97350800e-02 +2.39782557e-01 +1.37528390e-01 -8.26206245e-03 +4.72245216e-02 -8.59872773e-02 -3.34265590e-01 -6.70190901e-02 +3.49846661e-01 +3.35915476e-01 -1.20985573e-02 -4.40088809e-01 +1.29015774e-01 +8.61646160e-02 +3.09075058e-01 -1.15205362e-01 -1.13648899e-01 -7.59720663e-03 +2.01957166e-01 -1.32878840e-01 +2.12225482e-01 -4.48990427e-02 -6.95694759e-02 +1.23755179e-01 -4.25463915e-02 +5.70965707e-01 -2.33629867e-02 -2.26342723e-01 -2.54050553e-01 +1.86177641e-01 -2.08980083e-01 -6.40583277e-01 -1.41982920e-02 -1.49265595e-03 -4.70611192e-02 -2.65664428e-01 +1.70021191e-01 +2.46091932e-01 -3.38816553e-01 +1.19233556e-01 -8.60075876e-02 +4.16999757e-01 +2.68522382e-01 -1.33206517e-01 -1.92431197e-01 -2.87903130e-01 +3.60566616e-01 +1.16472565e-01 +4.64377820e-01 -2.77099997e-01 +7.77694881e-02 -3.08427289e-02 +4.09484170e-02 -4.29040849e-01 +3.38896900e-01 +5.04389822e-01 +5.96076846e-01 +1.91571549e-01 +6.21424690e-02 -3.23503554e-01 -3.02227825e-01 -3.47409874e-01 -9.73144621e-02 +1.53969467e-01 +3.88725281e-01 +2.13883854e-02 -5.74589893e-03 -4.80000108e-01 -1.71983838e-01 +4.09304917e-01 -8.56694460e-01 -3.43585968e-01 -3.96886587e-01 +3.52464646e-01 -6.74547404e-02 -3.47907208e-02 -2.95917869e-01 +4.06926982e-02 +9.77710038e-02 +3.93549740e-01 +1.12122651e-02 +8.52903277e-02 -1.52038082e-01 -1.32611236e-02 +2.43646622e-01 -3.08105126e-02 -1.00433387e-01 +4.37011510e-01 +2.96969175e-01 -3.31930578e-01 -3.97805274e-02 -1.34257898e-01 -1.27441972e-01 +3.00849050e-01 +2.69030243e-01 +2.44440183e-01 -4.32762772e-01 -1.24378324e-01 -1.70420632e-02 -4.53843623e-02 +7.09282383e-02 +2.99435735e-01 -9.23898742e-02 -1.93080559e-01 +1.79234833e-01 +4.17882800e-01 +9.52833965e-02 +1.52331695e-01 +1.27080247e-01 +1.13977239e-01 -1.80695087e-01 +1.31229535e-01 +2.30090618e-01 -2.87489712e-01 +4.55450624e-01 +2.14982107e-01 +9.38460454e-02 +1.02254907e-02 +2.88088340e-02 +6.59899935e-02 -1.83499411e-01 +2.03965470e-01 +1.90823659e-01 +5.97946234e-02 -7.27415923e-03 +1.92498744e-01 +4.76874202e-01 +2.43621647e-01 -1.29641980e-01 -1.39970466e-01 +4.45803329e-02 +1.21579051e-01 +1.81224540e-01 +2.78022826e-01 +1.52710974e-01 -2.14734465e-01 +2.27894947e-01 -2.62763768e-01 +3.01534534e-01 +7.79952884e-01 +1.70508519e-01 +2.57008344e-01 +2.03080535e-01 +1.02970503e-01 +1.36924654e-01 -2.48315305e-01 +2.61990309e-01 -5.93559481e-02 -3.39681447e-01 -1.94571912e-01 -4.92250472e-02 +4.41832870e-01 -6.57330900e-02 +2.43404567e-01 -1.13432109e-01 +4.42407340e-01 -2.45503142e-01 +1.89604983e-01 +5.87109327e-01 +4.19091552e-01 -1.32099822e-01 +2.16806792e-02 -9.16273594e-02 +9.48053747e-02 +9.12128910e-02 +1.37845710e-01 -3.42231244e-01 -1.65595308e-01 +1.33483350e-01 -1.61387011e-01 -1.17318377e-01 +1.49782971e-01 -5.32315969e-02 -1.31848589e-01 -6.91142604e-02 +1.05780080e-01 -2.97926575e-01 -7.47129023e-02 -9.67335477e-02 -4.69260544e-01 +5.65371476e-02 -2.04926029e-01 -3.47430825e-01 +4.50533003e-01 -2.44653508e-01 +2.70411789e-01 +1.31593093e-01 -2.34683767e-01 -4.06464050e-03 -1.83561534e-01 -3.13471667e-02 +2.38500416e-01 -3.41191888e-01 +9.30587277e-02 +8.65908027e-01 -2.02402338e-01 -1.65077731e-01 +1.07065573e-01 -4.24067751e-02 +4.43267286e-01 +3.18712711e-01 -8.05270374e-02 -6.59448728e-02 +4.03734624e-01 +3.26518081e-02 +1.40534922e-01 -1.26380861e-01 -5.99512048e-02 +3.85510027e-01 +2.42665261e-01 -2.78288245e-01 +3.57716948e-01 -2.18853265e-01 +6.79103136e-02 +2.43337572e-01 +2.43517146e-01 -5.21325739e-03 -3.00212234e-01 +2.78591663e-01 +3.65742683e-01 -1.06603064e-01 +3.19027603e-01 -4.64814641e-02 +6.13873377e-02 +2.04409346e-01 +2.69586354e-01 -2.61407673e-01 +7.30534852e-01 -3.40725869e-01 +4.34475332e-01 -5.95800430e-02 +5.15404105e-01 -3.99583787e-01 -6.38201386e-02 -3.44679832e-01 -1.29334450e-01 -2.90076006e-02 -2.68866830e-02 +5.86542189e-01 +1.41991034e-01 -9.87108946e-02 -1.66097373e-01 -8.85152757e-01 +8.68315697e-02 +5.17591536e-01 +9.92929161e-01 -3.76995891e-01 -2.52389491e-01 -4.74072367e-01 +3.78753066e-01 -1.81282848e-01 -2.43579760e-01 -1.77655697e-01 -4.07722175e-01 -3.80832642e-01 +1.29807033e-02 +6.46625042e-01 +4.22128737e-02 +1.85850248e-01 -4.53938633e-01 +7.75774345e-02 +2.39471138e-01 -1.84159726e-01 +1.95525676e-01 -6.90342724e-01 +8.92259851e-02 -1.40520796e-01 -1.30427197e-01 +5.04289009e-03 -2.12397069e-01 -1.01974331e-01 -6.11146331e-01 -3.51721257e-01 +1.37199953e-01 +5.25144301e-02 +8.00336957e-01 +6.53545201e-01 +1.55200243e-01 -1.30458087e-01 -2.41124108e-01 -5.18575609e-01 -1.90221071e-02 -4.31328416e-02 +1.05747789e-01 -2.04427615e-01 -1.90163076e-01 +2.24071834e-02 +2.31898781e-02 -2.68999726e-01 -3.83960068e-01 -1.46584496e-01 +2.48134017e-01 +1.87634945e-01 +1.71722278e-01 +8.22958276e-02 +1.71980225e-02 -1.68925114e-02 -1.58503905e-01 -7.78680086e-01 +1.90180361e-01 +2.72469193e-01 +2.19170563e-02 +1.98728397e-01 -7.60839060e-02 -7.72107393e-02 -6.43140525e-02 -3.64924848e-01 -1.90922067e-01 -1.09295890e-01 +1.66718468e-01 -1.09299861e-01 +2.17979342e-01 -1.27223030e-01 -3.97378355e-01 +5.80947042e-01 +1.32188216e-01 -2.54501611e-01 +3.10909599e-01 +4.90656197e-02 +4.67610061e-01 +8.25728774e-02 +2.33497277e-01 -2.03519940e-01 +3.53647321e-01 +1.93096995e-02 -1.65879324e-01 -1.40586480e-01 -2.87690580e-01 -1.17641047e-01 +4.08729821e-01 -4.01276737e-01 +2.85547078e-01 -9.15774330e-02 -1.76945299e-01 +2.21499488e-01 -8.83706957e-02 -2.75690496e-01 -2.94147700e-01 -7.96535015e-02 +6.68307468e-02 +7.02407584e-02 -1.66915253e-01 -2.62521300e-02 -1.33395135e-01 -3.42046358e-02 -9.84508395e-02 -1.33361283e-03 +9.59822237e-02 -9.13216397e-02 +2.06150383e-01 -2.79954709e-02 -7.84855932e-02 -1.23595305e-01 +3.71218354e-01 -1.66015834e-01 -2.85822541e-01 +4.90397900e-01 -1.79704368e-01 +3.49641661e-03 -4.78916131e-02 +3.03871661e-01 +8.38072747e-02 +1.20251052e-01 -2.85526603e-01 -2.89408136e-02 -1.04740478e-01 -1.65884793e-01 -1.93854392e-01 +1.88079357e-01 +1.43896133e-01 +2.91074872e-01 +3.35783869e-01 -2.10438669e-01 -2.95090407e-01 -9.69873816e-02 -1.27593756e-01 -3.04190755e-01 +2.88660258e-01 -9.47096497e-02 +7.78989792e-01 -3.80921274e-01 -9.41761062e-02 -1.58335879e-01 +2.86958784e-01 +2.28499547e-02 -1.49468765e-01 -2.26045489e-01 -4.00713444e-01 -1.51208326e-01 +7.37704217e-01 +2.05034107e-01 +4.46555227e-01 -1.00759722e-01 -2.34911442e-01 +1.56230889e-02 +2.15393025e-02 -2.18174338e-01 +2.24433303e-01 -9.15072411e-02 -1.38622701e-01 -1.99332342e-01 -1.96774259e-01 +1.82485789e-01 -1.66424409e-01 +3.84597816e-02 -2.34429970e-01 +2.44905185e-02 -2.15571404e-01 +4.67092603e-01 +5.73489845e-01 +8.55791047e-02 -2.02755451e-01 -1.41774505e-01 -3.44953269e-01 +2.73083672e-02 +4.26417291e-01 +2.37687260e-01 +3.51818502e-01 -4.32038069e-01 +3.41765374e-01 +9.81629789e-02 +1.31198332e-01 +4.92853403e-01 +2.83714026e-01 -1.26211613e-01 -4.32235390e-01 +5.00613749e-02 +4.18680817e-01 -2.17668280e-01 +3.99926156e-02 +4.48010713e-01 +2.92027146e-01 -1.67294703e-02 +1.23935929e-02 +8.62482041e-02 -3.13173831e-01 +8.09582397e-02 -5.02161205e-01 +4.21603650e-01 +3.10384154e-01 +2.84931242e-01 +1.34989858e-01 +2.12242112e-01 +1.16028070e-01 -2.44668320e-01 -2.57457435e-01 +2.20274612e-01 -4.73256297e-02 -8.95421281e-02 +3.89207527e-02 +2.71868426e-02 +3.94151330e-01 +6.27202690e-01 -2.41267130e-01 -2.24707499e-01 +7.74650201e-02 -2.78462589e-01 -4.76543933e-01 -8.53330940e-02 +7.51712248e-02 -1.29323483e-01 -3.34266514e-01 -9.99248177e-02 +4.75488380e-02 -3.10486883e-01 -2.38881245e-01 -4.42623019e-01 -1.17620878e-01 -2.12571010e-01 -3.14171582e-01 +5.65726280e-01 +6.91799700e-01 +5.49851730e-02 -2.19335213e-01 +6.26038909e-02 +5.18215746e-02 -3.28823268e-01 +2.59568781e-01 +8.38830531e-01 -6.48220852e-02 -4.28005159e-02 -1.48931593e-01 +1.30341336e-01 +5.35419360e-02 -2.72519737e-01 -1.78162575e-01 -9.61983111e-03 -5.61869085e-01 +1.61696911e-01 -1.06669396e-01 -3.11255187e-01 +3.53150889e-02 +1.50145561e-01 +1.57789700e-02 -3.58120799e-01 +2.03037232e-01 +2.08573248e-02 -1.93922430e-01 +1.85085833e-01 -5.80334244e-03 -6.24705702e-02 +5.66630185e-01 +1.80366054e-01 -2.56387025e-01 +5.39672315e-01 +3.46380383e-01 +1.18056349e-01 -1.19259469e-02 +6.83898851e-02 -1.19176507e-01 +1.06072105e-01 +1.20764459e-02 -1.05070285e-01 +1.15049608e-01 -3.06555212e-01 +7.80690312e-02 +3.83192688e-01 -1.72110677e-01 +4.44168709e-02 -3.66578192e-01 +6.73256218e-02 -1.02926768e-01 +2.36337155e-01 -1.80561215e-01 -1.20985415e-02 +5.11839055e-02 +1.50062457e-01 -4.15844381e-01 +1.84567571e-01 -2.22475156e-01 +1.10259064e-01 +8.31912830e-02 -1.37434766e-01 +8.57622176e-02 -6.41862955e-03 -3.82415861e-01 +2.27596045e-01 +2.55141437e-01 -5.27131297e-02 +3.86037454e-02 +1.98937610e-01 +5.32230772e-02 -1.78342327e-01 +1.40608817e-01 +1.58785507e-01 -1.80868462e-01 -1.48970047e-02 +1.45263532e-02 +9.36503947e-01 -1.69538617e-01 +2.08633810e-01 +1.40086666e-01 +2.34588474e-01 -1.85513228e-01 -1.10925145e-01 -1.29563466e-01 +2.33558252e-01 +1.40185803e-01 +3.16624880e-01 +5.37361622e-01 -2.09206015e-01 -1.70050859e-01 +1.67181447e-01 +4.50553671e-02 +1.20930582e-01 +3.49315479e-02 +1.96407199e-01 -2.17283919e-01 -7.34567866e-02 -6.61388040e-02 +2.02878177e-01 -2.14019671e-01 +2.33527124e-01 +3.00189644e-01 -1.47497222e-01 -2.49255285e-01 +1.79084718e-01 +5.75597227e-01 +1.59963191e-01 -5.51249623e-01 -3.20071727e-01 -8.70958567e-02 +2.26437315e-01 +2.32164919e-01 -4.25303489e-01 -2.15884551e-01 -2.93973416e-01 +8.86958987e-02 +2.15956986e-01 +1.43339232e-01 -2.35730052e-01 +9.02582556e-02 +1.75043017e-01 -1.07171372e-01 +1.84072345e-01 -1.21793181e-01 -1.28945902e-01 +4.07463200e-02 +1.77248698e-02 +2.43542045e-01 +3.17154765e-01 +1.22278236e-01 +1.17229864e-01 +3.51198822e-01 +2.48768911e-01 -2.09815487e-01 -1.71009637e-02 -1.45637751e-01 -1.89845964e-01 +4.67559516e-01 -2.11638376e-01 -2.41030023e-01 +8.06316435e-02 +5.03207147e-01 -2.39581257e-01 -1.34685278e-01 -2.12629393e-01 -1.81789398e-01 +2.39633378e-02 +3.44582647e-02 +6.78279549e-02 +7.88143277e-02 +2.76843607e-01 +3.57912213e-01 +9.95500833e-02 -2.56640792e-01 +1.11446492e-02 +5.93584061e-01 +1.25404969e-01 -3.90245318e-01 +7.89394230e-03 -4.92890328e-01 +1.00286752e-01 -2.05842510e-01 +6.36717856e-01 +3.33286934e-02 -1.45468727e-01 +3.19894582e-01 +1.44143850e-01 -2.82510877e-01 -8.17974731e-02 +2.09729210e-01 -1.82482541e-01 +5.43411076e-02 -1.80418238e-01 +8.19813669e-01 -2.65044063e-01 +1.35716898e-02 -3.49466056e-01 -1.26919195e-01 +2.18466967e-02 -1.99334145e-01 -4.96733218e-01 +4.93843466e-01 -9.27735507e-01 +2.30172992e-01 -4.90075588e-01 +3.00558567e-01 +3.97528429e-03 +3.14932674e-01 +4.33782153e-02 +2.26416633e-01 +8.76471698e-02 -3.37879151e-01 +3.27994764e-01 +1.07921608e-01 +1.24947935e-01 +1.06830575e-01 +2.77642518e-01 +1.58096284e-01 -2.61661001e-02 +4.88087863e-01 +3.88291627e-01 -5.10167837e-01 -2.47282758e-01 -5.34117460e-01 +4.51752454e-01 +9.08283144e-02 -1.00945169e-02 -1.45928562e-01 -8.73473298e-04 +4.77318242e-02 +1.62324637e-01 +8.27379674e-02 +1.72266722e-01 -9.88835245e-02 -1.53633446e-01 +6.54578507e-02 -1.59543261e-01 -1.95947647e-01 +1.01229124e-01 +1.67911142e-01 -1.67983204e-01 -1.32574551e-02 -1.14554344e-02 -8.51191700e-01 +1.40410244e-01 -1.01103030e-01 -2.66640577e-02 -2.67970376e-02 +5.99906072e-02 +1.04188032e-01 -1.38355047e-01 +2.54140794e-01 +2.18539327e-01 +1.87843189e-01 +2.71585256e-01 +1.55065775e-01 +2.63415098e-01 +2.58346587e-01 +1.08785026e-01 +2.24423539e-02 +4.57594842e-02 -6.61137849e-02 -1.11830151e-02 +2.78503180e-01 +2.56600194e-02 +2.36644015e-01 +1.73799489e-02 +1.65622115e-01 +3.22782435e-02 +2.08528802e-01 -2.66195774e-01 +4.58210409e-02 +7.44157434e-02 -6.02848947e-01 -7.19091967e-02 +1.67099629e-02 -4.90000397e-01 -3.05504978e-01 +3.02371323e-01 +7.48611093e-02 -1.64725155e-01 -9.55359861e-02 +8.76294896e-02 +2.23201662e-01 +1.17038570e-01 +9.89743471e-02 +1.20040186e-01 -8.10650587e-02 -1.37990131e-03 +1.58717185e-01 +4.35982376e-01 -2.47759908e-01 +2.45877475e-01 -3.37818086e-01 +1.06658459e-01 -1.88450769e-01 -3.66361104e-02 +1.87975511e-01 -3.17595750e-02 -5.82467318e-02 -3.72125804e-01 -1.12783343e-01 +1.23144358e-01 +2.33475521e-01 -1.98357552e-01 -1.69490561e-01 -4.79031987e-02 -4.85372424e-01 +1.95965588e-01 -6.62801787e-02 -1.30299166e-01 +1.89831451e-01 -2.75256515e-01 +6.30562842e-01 -2.64770895e-01 +5.63785672e-01 -1.16209082e-01 -3.67141306e-01 -2.55608354e-02 -9.77301002e-02 -3.79711509e-01 +4.10972210e-03 -2.03341171e-01 -1.87937677e-01 +1.79821521e-01 -2.41744965e-01 -3.01850569e-02 -1.48907065e-01 -8.74820724e-02 -1.85746662e-02 -4.15924996e-01 +2.02986121e-01 -1.49599649e-02 +3.06012571e-01 -1.96756441e-02 -1.52434975e-01 +1.68345906e-02 +1.68678761e-01 -4.28498536e-01 -4.76776026e-02 -1.65556669e-01 -2.44922061e-02 +2.49985024e-01 -3.73010546e-01 +1.12429392e-02 -3.71753812e-01 +3.91328841e-01 -1.22967385e-01 -5.09882629e-01 +3.11164390e-02 -1.31304950e-01 -1.97275609e-01 -4.94624496e-01 -4.04405482e-02 +3.58570695e-01 +2.30278656e-01 -2.05486730e-01 -2.47352734e-01 +2.66170323e-01 -2.94491686e-02 -2.77856179e-02 +1.90471515e-01 -2.67799962e-02 -3.52733046e-01 -1.04291253e-01 +4.38913584e-01 +2.15992182e-01 +1.01783536e-01 -2.26998046e-01 +4.85757664e-02 -4.36654031e-01 -7.66246170e-02 +2.21624419e-01 +3.40487540e-01 +3.99733067e-01 -3.09710383e-01 -2.79482156e-01 -3.13846171e-02 +2.03664824e-01 +5.95378101e-01 -2.27825984e-01 +1.51468873e-01 -3.87907296e-01 -1.53565601e-01 +5.05923778e-02 -1.82174295e-01 +6.57245144e-02 -2.42778540e-01 +1.94757193e-01 +3.49826157e-01 +5.47459126e-01 +2.08110660e-01 -1.32405743e-01 +6.14970140e-02 -3.69440734e-01 +2.44430199e-01 +1.21520318e-01 +2.41446011e-02 -9.63376239e-02 +1.70545608e-01 +5.07395983e-01 +4.90872175e-01 +1.07885945e+00 +2.39978746e-01 +9.88687724e-02 +1.32521838e-01 -4.87076342e-01 +4.51564103e-01 -4.39266413e-01 +2.05750242e-02 +2.40942851e-01 +1.62103139e-02 -7.30559051e-01 -2.31521130e-01 +8.26843232e-02 +1.12199068e-01 +1.16654851e-01 +7.25510538e-01 -2.91227371e-01 -4.66984212e-02 +2.08164468e-01 -2.23553613e-01 -2.26491407e-01 +4.17938143e-01 -1.64476499e-01 +3.42717558e-01 -1.22595675e-01 -1.26765251e-01 +3.10679828e-03 -7.83314258e-02 -9.18594077e-02 +2.92938918e-01 -6.02601469e-01 +1.91359684e-01 +8.22548643e-02 +8.66493359e-02 -4.59175080e-01 +5.47170460e-01 +3.50903243e-01 +2.51587201e-02 +5.69331162e-02 +5.44528723e-01 +1.66629657e-01 +1.68302998e-01 +4.36013669e-01 +2.76430026e-02 +2.70700604e-02 -1.25930130e-01 +1.56638086e-01 +1.44257575e-01 -2.98691660e-01 -1.81629851e-01 -3.18441354e-02 +5.43435626e-02 +5.12095332e-01 +8.03200249e-03 +5.18923581e-01 -6.06568277e-01 -1.89524606e-01 -9.65592787e-02 +1.31484300e-01 +2.49151513e-01 -3.72360319e-01 -2.92624295e-01 -3.35660651e-02 +6.84068948e-02 +8.21553916e-02 -1.84851155e-01 -2.46039685e-02 +3.16718042e-01 -5.47045529e-01 -1.82309479e-01 +3.67003754e-02 -8.36535811e-01 +8.25941563e-02 -3.55795354e-01 -2.21179388e-02 +1.15544610e-01 -8.74820650e-02 +4.20146078e-01 +2.21595958e-01 +4.59594168e-02 +3.54388207e-01 +4.08732481e-02 +2.06246134e-03 +1.32551700e-01 -6.23194687e-02 +4.12962317e-01 -4.83246326e-01 +6.15135878e-02 -2.09243909e-01 -2.18652189e-01 -3.12860876e-01 +1.67345256e-01 +3.34798336e-01 -5.59448265e-02 -9.29215997e-02 +2.57067710e-01 +2.20677187e-03 +3.11886333e-02 +2.79909074e-01 +1.53463960e-01 -3.29972923e-01 -3.61550562e-02 -2.30026066e-01 +8.26406628e-02 +1.84321359e-01 -5.05300276e-02 +7.03607202e-02 +9.31036547e-02 +4.31535617e-02 +6.78993911e-02 -8.13758373e-02 +9.01113972e-02 +1.43965170e-01 +1.42053470e-01 -8.16503093e-02 +1.16079465e-01 +7.19295964e-02 -2.76677728e-01 +7.08549842e-02 +6.05767071e-01 -3.51983011e-02 -1.64386630e-02 +4.96420152e-02 +1.41496450e-01 -3.46577436e-01 -9.38523710e-02 -4.08130847e-02 -1.18876575e-02 -5.02917133e-02 -3.61206979e-02 -5.44082411e-02 -1.21383883e-01 +3.02998424e-01 -4.58096042e-02 -1.56689137e-01 +5.66509962e-01 +2.74574459e-01 -3.57446641e-01 +8.31519291e-02 -4.22976390e-02 -2.80045241e-01 -8.10081139e-02 +5.99699259e-01 -4.11148757e-01 +5.22698136e-03 -2.97677755e-01 +2.18285114e-01 +8.85838792e-02 +1.45562552e-03 -7.60871917e-02 -1.47943482e-01 +3.22879761e-01 -1.10609613e-01 -4.17129248e-01 +6.27166592e-03 +3.22832376e-01 -2.93224514e-01 -1.07176952e-01 +1.85864866e-01 -5.21581769e-01 +2.00506672e-02 -2.76733816e-01 +3.11483555e-02 +5.92536218e-02 -7.88587511e-01 +2.15851158e-01 +2.59601742e-01 -7.27445334e-02 -2.82355815e-01 -4.38090265e-02 -7.63484538e-01 +1.12165309e-01 +7.43609890e-02 -4.42658335e-01 -1.64318562e-01 +4.84469719e-02 +5.72267221e-03 +4.02944893e-01 -1.38199210e-01 -2.12397859e-01 +2.63579696e-01 +2.29338519e-02 -3.03304106e-01 +2.14902963e-02 +3.56818467e-01 +1.89985827e-01 +1.08293939e+00 +1.15355708e-01 -3.43290642e-02 -2.01275066e-01 +5.00378728e-01 +4.99501735e-01 +5.12955189e-01 -2.02466041e-01 +5.54334700e-01 -1.75880089e-01 -1.67897627e-01 -3.48535657e-01 +1.17771894e-01 +2.44667493e-02 -5.12791239e-02 -3.05382878e-01 +5.61848506e-02 +3.17609370e-01 -3.32819700e-01 +6.95853412e-01 +2.24649962e-02 -2.36931920e-01 -1.05363876e-01 -5.77342324e-02 +2.75796682e-01 -2.15587109e-01 -3.37273270e-01 -2.37435341e-01 +1.11015122e-02 +1.41178876e-01 +1.33977175e-01 -3.01309288e-01 +2.80158632e-02 +1.25441998e-01 -1.18610635e-02 -2.01173857e-01 -8.31553340e-02 -7.11964630e-03 -1.82636693e-01 -1.98331907e-01 -6.36045486e-02 -5.94916381e-02 +1.91186145e-01 -1.44178614e-01 -3.89361054e-01 +3.54165733e-01 +1.68051925e-02 +3.58632535e-01 -2.56042928e-02 +4.70413804e-01 -7.13330805e-02 +4.08022374e-01 +4.78672683e-01 +4.88723367e-02 +2.50648931e-02 +3.79862934e-01 +4.27387729e-02 -5.12815267e-02 +5.92009783e-01 +2.33189743e-02 -2.12059002e-02 -4.10918236e-01 -2.01579094e-01 +3.87554944e-01 +1.05663985e-01 -5.84870279e-01 +2.92784810e-01 +1.37654617e-01 +1.82865530e-01 -8.05986524e-02 -5.00039943e-02 +2.22355545e-01 +1.95172504e-01 +1.36807933e-01 -4.16751325e-01 -2.00743288e-01 -1.67636067e-01 -3.48773412e-03 -1.80800617e-01 -2.28316233e-01 +5.25708020e-01 -1.53670385e-01 -1.73760295e-01 -4.81939644e-01 +2.27693453e-01 -1.44890830e-01 -7.38890693e-02 -8.87589827e-02 +4.06419747e-02 +1.26283690e-01 -3.43490064e-01 -2.28663310e-01 -4.30920541e-01 -8.04855675e-03 +3.00697893e-01 -2.28789866e-01 +1.46901667e-01 +1.64058451e-02 +2.25500643e-01 +4.21010330e-02 -6.85110688e-02 +1.05710119e-01 -5.14668405e-01 -3.28515619e-01 -1.41172424e-01 -2.33440056e-01 +2.62339830e-01 -3.48939955e-01 +3.29834849e-01 -1.50292322e-01 +1.14699386e-01 +1.88816234e-01 +1.49395853e-01 -1.98485807e-01 +4.72519323e-02 -2.35137194e-01 -1.50037304e-01 -6.11869469e-02 -9.48518142e-02 +3.40187103e-01 -1.89731456e-02 -2.20905542e-01 -5.39050847e-02 +3.99442494e-01 -6.91158250e-02 -5.87080956e-01 -6.01762347e-02 -3.82080883e-01 +3.60259920e-01 -8.82909521e-02 -4.34958339e-02 +9.86650139e-02 -1.19514979e-01 +2.36088149e-02 -3.98992524e-02 +2.36404747e-01 -2.99449593e-01 -2.06552386e-01 -2.18685240e-01 +8.34194720e-02 -1.91991657e-01 +1.87535554e-01 -1.43150851e-01 +1.76047534e-01 -1.77806662e-03 +1.39517840e-02 +4.92941558e-01 +2.57330149e-01 +1.18212484e-01 +2.48655304e-01 -2.77587831e-01 +3.55084896e-01 -8.58976170e-02 +2.58441508e-01 -2.72308260e-01 +4.21778619e-01 +6.43269569e-02 +1.33750200e-01 +1.31324947e-01 -8.06328654e-02 +1.13100849e-01 -4.94909100e-02 -6.75611943e-02 +1.45155236e-01 +2.63477355e-01 +1.89340785e-01 -4.23791647e-01 +4.03264701e-01 +1.47856221e-01 +4.25768524e-01 +7.94037506e-02 +1.83444262e-01 +3.27460974e-01 +4.33405399e-01 -1.10168442e-01 -1.94190949e-01 -2.03703612e-01 +2.28767544e-01 -6.15983009e-01 +1.88776717e-01 +6.65113190e-03 +1.31872013e-01 -3.82275462e-01 -3.98222744e-01 +2.10017443e-01 -1.83684722e-01 -2.56421149e-01 -1.61549240e-01 +4.19549383e-02 -1.97286174e-01 -3.99530292e-01 +3.15644175e-01 +4.68483299e-01 -9.12360325e-02 -3.05361077e-02 +2.15576842e-01 -1.15843154e-01 +1.67281836e-01 +3.49708706e-01 +2.94541299e-01 +8.25544372e-02 -2.25595340e-01 -6.68484420e-02 +3.16544443e-01 +4.55911398e-01 -5.39626777e-01 -4.17781442e-01 -2.81632334e-01 +4.34609726e-02 -1.23695061e-01 +1.63969457e-01 +3.54530603e-01 +1.39070690e-01 +4.48761821e-01 -4.37215149e-01 +6.16858065e-01 -4.99824882e-01 +8.14057440e-02 +7.98830669e-03 +8.84418413e-02 +1.34074911e-01 -1.22586481e-01 +7.18040705e-01 -2.69399583e-01 -1.00012057e-01 -3.60805988e-02 -2.31876522e-01 -5.83079338e-01 -3.69265854e-01 -6.22470915e-01 -1.86250791e-01 +4.42435294e-01 -1.42469481e-01 -1.49336621e-01 +1.31105274e-01 -4.25108969e-01 +3.75447243e-01 +1.61209241e-01 +6.67937577e-01 +3.43445927e-01 -3.20854872e-01 +2.53768444e-01 -4.20193642e-01 +4.20540310e-02 +2.55075067e-01 -1.92672163e-01 -3.15531194e-02 -1.01318300e-01 -3.76888067e-02 -1.31923765e-01 +9.88100693e-02 -1.28792316e-01 +2.90501844e-02 -2.73740798e-01 +7.28892116e-03 -3.22529394e-03 +7.41128251e-02 -3.76614004e-01 -2.21913278e-01 +3.55118886e-02 -1.00943081e-01 +4.27635878e-01 +2.75724232e-01 +4.45882142e-01 -2.65789658e-01 -4.52784337e-02 +2.22383533e-02 +1.63080692e-01 +1.40968069e-01 -2.76352614e-01 -1.20564491e-01 +1.71927720e-01 -2.93055385e-01 -3.50483239e-01 +3.41326267e-01 +2.03631938e-01 -3.10104322e-02 -3.61766927e-02 +8.90585501e-03 +6.89833224e-01 -8.48807320e-02 -1.75748467e-01 +1.33187026e-01 +1.69949859e-01 -1.88396186e-01 +2.37454399e-01 +2.27397587e-02 -5.06829470e-03 -1.37246236e-01 +1.93185866e-01 -1.02410711e-01 -3.61409783e-02 +3.08010489e-01 +7.33466470e-04 -7.27436244e-02 +2.61115372e-01 +4.22403477e-02 -1.12016574e-02 -4.56234664e-01 +1.67701006e-01 -1.54446527e-01 +2.43013665e-01 -8.59039724e-02 +1.94651946e-01 -2.93489173e-02 +3.25298905e-02 -1.30799329e-02 +3.07955798e-02 +6.49419308e-01 +2.02268809e-01 -6.58135042e-02 -2.74798553e-02 -9.98468772e-02 -9.37692523e-02 +1.37755647e-01 -1.54795825e-01 +1.48053452e-01 -3.83706279e-02 +3.16036433e-01 -2.81599015e-01 +1.19503565e-01 +1.90433100e-01 -1.71430215e-01 +1.86212972e-01 +2.08032310e-01 +2.72886068e-01 +6.08178020e-01 +1.27642483e-01 +1.89392552e-01 +2.48383820e-01 -8.19663480e-02 -7.66492188e-02 -3.33188593e-01 +3.96601588e-01 -1.43795788e-01 -2.01509614e-02 +2.01864123e-01 +4.63092625e-01 +4.20022309e-02 -3.79089445e-01 +2.78204709e-01 -2.15671435e-02 -4.92361069e-01 +1.09110340e-01 -2.61937857e-01 +2.18050957e-01 +2.01884642e-01 +2.12705269e-01 -1.62612185e-01 +2.88803607e-01 +8.49057063e-02 +4.27155286e-01 -2.24260584e-01 -2.10004270e-01 -2.84644395e-01 +1.37331769e-01 -5.24027012e-02 -5.28701067e-01 -2.29999349e-01 +1.10499956e-01 -1.82184309e-01 -3.83487269e-02 +2.17057794e-01 -2.22415164e-01 -1.51274428e-01 +1.32255241e-01 -7.72955477e-01 +1.69110317e-02 -1.03530332e-01 -5.54365739e-02 -1.00212693e-01 -1.30593311e-02 -1.48327142e-01 -4.01325375e-02 +1.75719529e-01 +2.49692887e-01 +2.89528728e-01 -9.56325531e-02 -1.51368782e-01 -2.30228323e-02 -4.77647722e-01 +2.16672361e-01 -7.28479743e-01 -2.75316000e-01 +1.78587914e-01 -2.99530774e-01 +4.23996985e-01 -7.42798448e-02 -1.84869930e-01 -1.70835145e-02 +4.14652616e-01 -2.38419935e-01 +6.53554425e-02 +2.94533312e-01 +3.94256175e-01 -1.53351486e-01 -1.97036609e-01 +1.58090249e-01 +8.41922238e-02 +4.37679917e-01 -2.42387116e-01 +3.06365311e-01 +4.38302130e-01 +6.18362203e-02 -3.38000834e-01 +2.43526697e-01 +5.65204978e-01 +4.42605615e-01 -6.09532237e-01 -6.09033644e-01 +1.28826452e-02 +5.28656006e-01 -3.88411403e-01 -4.69079554e-01 +7.81049728e-01 +4.72052962e-01 +3.05488914e-01 -4.92786407e-01 -2.71215588e-01 +6.09158397e-01 -2.00407490e-01 +3.97665918e-01 -3.51878375e-01 +4.10666108e-01 -3.44707012e-01 +9.33502987e-02 -3.36472243e-01 +4.59871709e-01 -4.23914939e-01 -1.97415039e-01 +9.73395109e-01 +2.87594050e-01 +2.17813119e-01 +2.00945646e-01 -2.34858245e-02 -1.03688329e-01 -3.18354726e-01 -6.40202820e-01 +1.00172639e-01 +3.49515945e-01 -3.11038077e-01 -5.65477982e-02 -1.00428790e-01 -3.07921246e-02 -4.99335349e-01 +2.10242551e-02 -1.41122967e-01 +8.86624232e-02 +5.74866086e-02 +2.95680702e-01 -1.50717020e-01 +2.23652139e-01 -4.78012890e-01 +3.54180127e-01 -3.46902907e-02 +2.30259486e-02 +1.02060758e-01 +9.29752551e-03 +6.33228421e-01 -3.21745165e-02 -1.82582229e-01 -3.04717803e-03 -2.62369607e-02 -2.40367115e-01 +2.69246474e-02 +2.28420347e-01 +7.44135380e-02 +2.36323159e-02 -3.12895358e-01 +1.55991882e-01 +1.85579613e-01 -2.02763110e-01 -2.41505727e-01 +3.76780443e-02 +4.37208742e-01 -3.46549600e-01 -3.31165671e-01 +8.69191624e-03 -2.60776058e-02 -4.67975914e-01 +1.03077322e-01 +2.33112514e-01 -3.09033900e-01 -2.10873470e-01 +9.62570533e-02 +7.99217299e-02 -3.32794100e-01 -9.51959193e-02 -3.05436850e-01 +3.27671230e-01 +7.24198595e-02 +1.68301538e-01 +2.28197515e-01 +1.67285562e-01 +2.84262389e-01 -8.81036185e-03 -6.09027594e-02 +6.37112781e-02 +3.14722657e-01 -1.63960326e-02 +2.18930095e-02 -1.57281727e-01 +5.06318390e-01 -1.10842519e-01 -2.13198975e-01 +1.53928965e-01 -2.22449735e-01 +1.21331543e-01 +8.69613215e-02 +4.79274727e-02 -4.24449518e-03 -2.62101680e-01 +1.33150979e-03 +2.30549425e-01 -2.00251520e-01 +4.07477990e-02 +4.79756780e-02 +2.39617247e-02 -1.06474701e-02 -4.27035481e-01 -3.32943767e-01 -6.72106668e-02 +7.07254857e-02 -2.66593397e-01 -2.40675285e-01 -2.85360128e-01 -5.54416366e-02 -1.99588642e-01 +4.35256846e-02 +2.82983780e-01 +1.14073753e-01 +1.51118755e-01 +1.59071237e-01 -1.79610580e-01 -6.61607087e-02 -6.19797893e-02 +2.03531876e-01 +6.54862002e-02 -1.57983214e-01 +2.04521522e-01 -1.99246868e-01 -6.87943175e-02 -5.56879044e-01 -2.35096350e-01 +2.39982475e-02 -3.45590353e-01 -4.81558681e-01 -2.46004984e-01 +1.77136019e-01 -7.20481649e-02 -2.60310501e-01 -3.18576008e-01 +1.52386546e-01 +2.18500108e-01 -2.04030335e-01 +2.04486057e-01 +1.52732562e-02 +3.98803592e-01 -9.51823369e-02 -8.54796991e-02 -1.54332146e-01 -1.19142450e-01 -4.13566343e-02 +1.11782894e-01 -5.21690905e-01 +1.78935185e-01 +4.00945216e-01 -4.69161160e-02 +2.96278358e-01 -2.09323078e-01 -2.43103951e-01 -3.58959176e-02 +2.58191070e-03 -6.14916459e-02 +6.97095394e-02 -3.64011109e-01 +7.80786108e-03 +2.93946147e-01 -2.28079438e-01 -2.73018509e-01 +1.07546292e-01 -5.37904859e-01 -2.45302543e-01 +2.73382813e-01 -4.83953416e-01 +2.83504218e-01 -2.91509509e-01 +1.40553504e-01 -3.68495345e-01 +6.82804808e-02 +6.16668276e-02 -3.30371171e-01 +4.57265884e-01 +1.65333599e-02 +7.11017940e-03 +6.88372403e-02 -2.54426822e-02 +5.53687096e-01 +2.57533073e-01 -2.14502260e-01 +4.00843611e-03 +3.37350041e-01 +6.43134892e-01 +1.80640984e-02 +5.45089185e-01 +3.86129558e-01 +5.45075119e-01 +2.38881275e-01 +2.53939360e-01 -1.72923103e-01 +2.46757925e-01 -4.21463162e-01 +1.72829151e-01 -9.52390283e-02 +5.44669509e-01 -4.95957255e-01 -2.79126555e-01 -5.31338900e-02 -6.35118410e-02 -4.93380129e-02 +2.23953091e-02 -9.73086338e-03 +7.92291760e-03 +1.60715833e-01 -8.99019614e-02 +2.59786937e-02 -2.99546629e-01 -2.05356881e-01 -3.35643351e-01 -2.68188387e-01 -2.94553429e-01 -1.71801418e-01 +1.94085389e-01 -1.45884017e-02 -2.37123817e-01 -3.61414492e-01 -1.15593135e-01 -1.34476840e-01 -6.79217353e-02 -2.37625957e-01 -2.83042282e-01 -2.46566787e-01 +1.51582867e-01 +4.59387191e-02 -7.20866740e-01 +2.06275105e-01 +1.45276964e-01 -4.08190995e-01 -1.80151209e-01 -1.52841434e-01 +3.24685387e-02 +2.38252655e-01 +2.83192217e-01 +4.55422372e-01 -9.92228687e-02 +1.96987569e-01 +3.52663130e-01 -9.03463438e-02 +3.30370128e-01 +9.42253694e-02 -5.37736081e-02 -1.14607900e-01 -3.41623098e-01 -1.01871848e-01 +4.14937198e-01 -6.76863790e-01 -1.20278113e-01 -2.17151061e-01 -2.37996474e-01 +1.04580224e-01 +1.05245903e-01 +1.85380802e-02 -2.23337740e-01 -7.31531112e-03 +2.11446002e-01 +2.09414154e-01 +1.23236636e-02 +8.28711316e-02 +1.60641000e-01 -3.92941177e-01 -9.92427394e-02 +5.23070917e-02 +2.17169464e-01 +3.70736748e-01 +1.12938218e-01 +4.21836972e-01 +1.75225586e-01 -4.26443100e-01 -1.07151777e-01 +3.62866879e-01 -2.46946156e-01 -7.50967190e-02 +1.43888369e-01 +5.37648052e-02 +4.53703612e-01 +2.51073278e-02 +1.13369050e-02 -9.89735965e-03 +7.53255934e-02 +1.23079598e-01 -1.69305038e-03 +1.72031336e-02 -7.72129074e-02 +2.38825381e-01 +4.48196083e-02 -9.95433033e-02 +2.09517386e-02 -2.31515899e-01 +2.29316354e-02 +5.71889654e-02 -2.49672651e-01 -2.19353437e-01 +8.91852602e-02 +3.65988910e-01 -6.19277023e-02 +2.64803588e-01 -1.73556209e-01 +6.51294664e-02 +1.56005695e-01 -1.48784935e-01 -1.97573915e-01 +2.63430309e-02 +7.04284236e-02 +3.50274920e-01 -3.39836359e-01 +4.10579927e-02 -6.68484509e-01 -3.22101831e-01 -2.16453046e-01 +2.92236388e-01 +2.51843125e-01 -4.96809036e-01 -3.84055495e-01 +5.14575019e-02 +8.40764046e-02 -3.48087460e-01 +2.38112226e-01 +1.32578179e-01 +3.11612099e-01 +3.79664600e-01 -7.46513367e-01 -1.49679527e-01 +2.31538624e-01 -1.52215257e-01 -1.39987171e-01 +5.27292341e-02 -3.25174183e-01 -4.86176103e-01 -1.48798540e-01 -1.89619496e-01 -1.21311776e-01 -3.45590822e-02 +1.80413842e-01 +5.17185867e-01 +1.75149161e-02 -1.86168909e-01 +4.00089443e-01 -1.62421927e-01 -1.55824833e-02 -2.44301990e-01 -2.73381379e-02 +1.74074136e-02 -2.46620834e-01 -2.82069564e-01 +4.04151604e-02 +2.38572896e-01 +3.02940339e-01 +1.65004596e-01 -1.43338174e-01 -9.70177725e-02 -7.63257444e-01 -2.93882638e-01 +7.61016011e-02 +1.76412165e-01 -2.78445333e-02 -1.33683667e-01 -1.29357800e-01 +6.67368844e-02 -2.02197149e-01 -8.67997203e-03 +2.21913005e-03 +3.73872444e-02 +4.31399979e-02 +6.17600083e-01 -3.80384028e-01 -1.96227923e-01 +4.80446905e-01 +3.56653094e-01 +1.77517846e-01 -2.36904651e-01 +3.27813536e-01 +1.11847982e-01 -5.50913036e-01 +8.65911096e-02 +2.66564488e-01 +1.51013955e-01 -2.99130753e-02 -2.51996696e-01 -4.78165329e-01 +1.43770099e-01 +4.83815551e-01 +6.76243961e-01 +1.14555717e+00 +2.39557046e-02 +1.60494685e-01 +2.09592879e-01 +7.36329913e-01 -2.69033223e-01 -4.53242272e-01 +2.02239200e-01 +8.37808326e-02 +6.36605024e-02 -1.61161557e-01 +5.84344089e-01 +3.60258520e-01 -2.24677846e-01 +1.94674745e-01 -4.76691246e-01 -2.68794000e-01 -1.59011990e-01 +4.20163460e-02 +3.74576420e-01 -9.36334580e-02 -2.19501909e-02 -2.76726723e-01 -1.46801367e-01 +4.30515885e-01 -3.68545085e-01 +6.00249134e-02 -2.91289985e-01 +2.81036884e-01 -7.21664801e-02 +2.11222768e-01 -1.97188482e-01 -6.12253696e-02 -5.78110926e-02 -2.17509091e-01 -2.64090188e-02 +1.73245296e-01 +4.73380685e-02 -1.28838032e-01 +2.81568971e-02 +1.63103417e-01 -4.33123499e-01 +8.27839449e-02 -2.59533197e-01 +1.50443790e-02 -9.75931883e-02 +1.63348660e-01 -1.29648909e-01 -3.22145939e-01 -1.55247942e-01 -2.21462965e-01 +4.16736275e-01 -2.43603569e-02 +1.02997422e-01 +2.79754382e-02 +5.42003475e-02 -2.02651650e-01 +7.96211734e-02 -1.51945323e-01 +1.54431388e-01 +2.96080038e-02 -3.83088261e-01 -2.79414654e-01 -3.86215150e-02 -2.30444252e-01 +1.61620811e-01 +3.78939658e-01 +4.48409945e-01 -2.86881238e-01 +3.20765004e-02 -6.55907318e-02 -4.30841267e-01 +3.32204491e-01 -4.26426977e-02 -1.98754847e-01 +1.39620779e-02 +1.21111169e-01 +4.99656469e-01 +1.52638271e-01 -8.85745212e-02 -5.92933185e-02 +3.68239313e-01 -6.12712689e-02 -1.34525471e-03 -4.38444674e-01 +3.27769041e-01 -4.25747365e-01 +1.83927849e-01 -4.36512195e-02 +8.45692456e-02 -6.85964227e-02 +1.78644985e-01 +2.16328830e-01 +7.53954500e-02 -2.29215741e-01 -3.53132099e-01 +9.40328240e-02 +2.89603680e-01 +8.81381407e-02 +2.27252051e-01 -2.97674567e-01 +3.64065077e-03 -1.54330254e-01 -7.11570531e-02 +3.76518309e-01 -1.84353903e-01 +4.11490053e-01 +1.82215527e-01 -1.02180324e-01 -4.16524291e-01 +1.32356798e-02 -2.55271167e-01 +2.52103597e-01 +6.12536490e-01 -1.89553663e-01 +3.13545913e-01 -1.18071899e-01 -1.45674855e-01 -1.63055167e-01 +6.61189621e-03 -9.68544260e-02 +2.73889363e-01 -5.08229017e-01 +3.26347411e-01 -3.21968421e-02 -1.21756300e-01 +3.01478747e-02 -2.16900200e-01 -5.00091352e-02 +3.77049595e-01 -4.90637958e-01 -9.31970924e-02 -1.59554541e-01 +5.33043183e-02 +4.39774841e-01 -1.67980731e-01 +1.36055470e-01 +1.08148381e-01 -8.24399292e-02 +2.00348757e-02 +1.31854877e-01 +8.09468795e-03 +6.45403415e-02 +3.05885285e-01 +1.19491175e-01 -3.34938437e-01 -2.28797138e-01 +1.61510140e-01 -6.75696805e-02 -1.27625493e-02 -1.35115430e-01 -1.27222881e-01 +5.27649932e-03 +8.56620148e-02 -1.31706119e-01 +1.71320379e-01 -7.09199131e-01 -4.39321607e-01 -1.56185895e-01 -6.15845099e-02 -2.52942573e-02 -5.43981850e-01 -3.33113253e-01 -1.01244718e-01 -4.27274480e-02 +1.12053186e-01 +1.37464091e-01 +1.45560831e-01 +4.57639903e-01 +3.91268343e-01 -4.65859659e-02 -4.74688232e-01 +1.21456966e-01 +3.13499570e-01 -2.99139202e-01 +3.52240235e-01 +2.61491798e-02 +4.06249553e-01 -2.12313095e-03 +1.23786159e-01 -3.29772919e-01 -1.05392002e-01 +2.10513473e-02 +2.26372909e-02 -1.47647455e-01 -6.46383345e-01 +9.84337404e-02 -2.08082259e-01 +6.26556039e-01 -1.63212642e-01 -4.54427093e-01 -6.59892917e-01 +4.62228864e-01 +1.77366257e-01 +5.13411649e-02 +4.76216555e-01 +1.92697063e-01 -3.69252264e-02 -2.63040036e-01 -2.10956067e-01 +2.38669246e-01 +3.65425587e-01 +3.73375416e-01 -2.17623800e-01 -5.12294710e-01 +5.74188530e-02 +9.17955488e-02 +3.46986532e-01 +1.17247321e-01 -3.50458547e-02 +1.27061158e-01 -2.96628445e-01 +1.97805628e-01 +1.96333066e-01 +3.59981984e-01 -2.82679170e-01 -5.78654222e-02 +2.67188787e-01 +2.19622031e-02 +3.25022265e-02 -1.73138365e-01 +5.92367677e-03 -3.37903410e-01 +5.20136617e-02 +1.28569990e-01 -2.21093744e-01 +2.90304691e-01 +4.73934621e-01 +6.99656308e-02 -5.38979709e-01 -6.27636984e-02 +4.23692554e-01 +1.66604251e-01 +2.04335958e-01 +2.98612602e-02 -2.50384390e-01 -1.00236751e-01 +4.08995420e-01 +1.68347940e-01 +3.28321785e-01 +1.03354327e-01 -1.17773741e-01 -4.20932919e-01 -2.85803854e-01 -5.01904683e-03 -1.92054272e-01 +4.04955178e-01 -1.25151068e-01 -3.00980289e-03 -1.19550368e-02 +3.82536173e-01 +9.21712145e-02 +1.89521059e-01 -3.99019569e-02 -1.01323195e-01 +7.36088157e-02 -4.97737825e-01 -2.02257529e-01 +1.80596501e-01 +1.52079001e-01 -2.39471942e-02 -4.68468130e-01 -1.61076486e-01 -3.84574234e-01 -2.58354574e-01 -2.60851443e-01 -1.43966466e-01 +1.20222807e-01 -3.64085436e-01 +1.10403582e-01 -6.86307112e-03 -5.23056388e-01 +2.29338128e-02 +4.66795452e-02 +2.58383721e-01 -1.45428134e-02 -2.87889633e-02 -9.24498662e-02 +9.69992056e-02 -7.00441897e-02 +3.13029699e-02 -1.34535749e-02 -1.29129320e-01 +1.71981961e-01 +9.98862982e-02 +1.13030121e-01 +5.06218299e-02 -3.43885899e-01 +2.46802390e-01 +2.40928695e-01 -1.02704592e-01 +8.55488628e-02 +2.70782993e-03 -4.78883237e-02 +5.56510352e-02 +1.04474224e-01 +2.58895189e-01 +2.44331852e-01 -8.00172016e-02 +1.35591358e-01 -3.58860433e-01 +5.83379686e-01 -9.74748805e-02 -2.66233504e-01 +1.96587339e-01 +9.14254505e-03 +4.53478128e-01 -1.86980233e-01 +1.68273523e-01 -3.84252876e-01 -1.78672513e-03 +2.92568700e-03 -9.51221883e-02 +1.73415616e-01 -2.03807354e-01 +1.75515376e-03 +1.02956600e-01 +7.88333267e-02 -2.04613686e-01 -5.81056923e-02 +2.37733781e-01 -2.16800436e-01 +4.30396318e-01 +5.21605253e-01 +1.94313735e-01 -2.89275479e-02 -8.96238163e-02 +3.74128282e-01 -2.10229874e-01 -4.52404618e-01 +5.54018795e-01 +1.32954512e-02 +1.46927118e-01 -1.55221313e-01 +2.15318277e-01 +3.35463196e-01 +9.48651973e-03 -3.60717148e-01 +6.68196455e-02 +2.59492636e-01 -1.54007047e-01 +1.48759469e-01 -2.59189885e-02 +3.30442160e-01 -1.60875797e-01 -3.43655944e-02 +3.24756117e-03 +1.47565100e-02 -1.06584594e-01 +9.22074467e-02 +3.15547556e-01 +2.08111957e-01 +1.47825703e-01 -2.62437284e-01 +1.49187014e-01 +1.51710123e-01 -6.38616800e-01 +3.12244482e-02 +2.46176317e-01 -1.22207291e-01 +1.30015567e-01 +6.31935969e-02 +1.90693259e-01 -3.32451425e-02 -2.06540182e-01 -5.08642457e-02 -7.41113722e-02 +9.48638245e-02 +2.76669264e-01 +2.53502578e-01 +8.17718655e-02 -1.09650731e-01 +1.82765037e-01 +3.00672114e-01 +1.88702792e-01 +3.79227161e-01 -5.39592505e-01 +1.18600555e-01 -2.92712245e-02 +1.41518608e-01 -3.12630646e-02 +3.07162791e-01 +2.52063096e-01 +3.97598743e-01 +6.10964119e-01 +2.89212316e-01 +4.46255542e-02 +1.75488442e-01 -1.65751074e-02 -3.76143664e-01 +1.51639834e-01 +2.18867362e-01 +8.37499052e-02 -2.51134366e-01 -2.42853295e-02 +2.34495148e-01 -3.32559884e-01 +4.83130552e-02 -4.28361744e-01 +2.73837447e-01 +3.67983520e-01 -2.84850616e-02 -6.04697049e-01 -7.90229347e-03 -2.67003566e-01 -1.00928642e-01 +2.19937980e-01 -2.21438065e-01 +1.09777533e-01 +8.62408102e-01 +1.86692610e-01 -6.28118068e-02 -1.68002754e-01 -1.61429986e-01 -4.71229494e-01 +1.79661646e-01 -4.80965912e-01 +9.44628716e-02 +3.26645136e-01 -2.89124697e-02 +1.69599935e-01 -2.44749516e-01 +3.55710387e-01 -1.11646298e-02 +3.14476669e-01 +3.93258363e-01 +1.42670020e-01 -3.05269063e-01 +2.08110914e-01 -1.56128034e-01 -3.85161489e-01 -2.28351116e-01 +2.55189598e-01 -1.18446738e-01 +3.41391563e-01 +1.87296405e-01 +2.90652633e-01 -1.92245673e-02 -1.14931516e-01 +6.62374198e-02 -9.56404954e-02 -3.17724556e-01 +7.80164599e-02 -1.12244532e-01 -5.44739030e-02 -7.89844766e-02 +3.32065970e-01 -1.27352327e-01 +5.64109720e-02 -4.08263914e-02 +2.27045178e-01 -3.29232126e-01 -4.49392557e-01 +4.40043956e-01 +1.96534708e-01 +8.52173865e-02 +1.59841314e-01 -2.05410160e-02 +3.54184695e-02 -3.04250512e-04 +1.09583646e-01 -4.63460274e-02 +9.20038819e-02 +5.77458382e-01 -3.44827354e-01 -7.27983415e-02 +4.16121274e-01 -1.43130109e-01 -8.57466161e-02 -3.19025330e-02 +3.11414540e-01 -1.56808063e-01 +2.62824118e-01 -1.59527615e-01 -4.55740780e-01 +3.29315439e-02 +4.97586019e-02 +3.96663435e-02 +4.20259908e-02 +2.15904023e-02 +3.58665645e-01 -1.33955240e-01 +5.63798212e-02 +9.93035659e-02 -4.78794128e-01 -5.28942764e-01 -1.37976751e-01 -2.87301064e-01 +2.90606022e-01 -1.97536238e-02 -1.88781440e-01 +2.57281959e-01 -3.04866403e-01 -7.50614703e-03 -8.21994059e-03 -1.50535509e-01 -7.39532351e-01 +7.38535672e-02 -2.67788589e-01 +2.39514798e-01 +1.31081954e-01 +1.36786774e-01 +1.23045191e-01 -1.68978825e-01 +4.29190649e-03 +1.24823250e-01 -1.16798446e-01 -2.73566812e-01 +1.20748974e-01 +1.60177499e-01 -3.27759497e-02 +9.38137695e-02 +4.74821538e-01 +1.73153877e-01 +5.13939738e-01 -6.55497089e-02 -6.55781403e-02 -1.66192725e-01 +3.90317738e-02 -2.35596687e-01 +1.89672559e-01 -4.93434072e-01 +1.68630388e-03 +4.35074240e-01 +2.06222743e-01 +1.75958108e-02 -3.32220197e-01 +2.48339493e-02 +8.40452090e-02 +1.32048398e-01 +4.08533335e-01 +3.24976772e-01 -1.41474038e-01 +2.73268640e-01 +7.03136772e-02 -1.21432738e-02 -2.78556138e-01 -2.54274428e-01 +4.69585329e-01 -5.87082878e-02 +1.65143490e-01 +7.89432600e-02 +1.83320232e-02 -3.12778324e-01 -1.68732837e-01 +5.02302051e-02 -9.36573595e-02 +5.63698150e-02 +1.83090985e-01 -4.67788339e-01 +1.59257084e-01 -1.99407041e-01 -1.04613584e-02 -1.48697525e-01 -3.81072432e-01 +7.96862915e-02 -5.82399487e-01 -3.51720661e-01 -3.42574269e-01 -1.07676663e-01 -4.00659114e-01 +3.72386366e-01 +6.03436828e-02 +2.72142917e-01 +1.44692272e-01 -6.24168888e-02 -2.37096220e-01 -1.92631900e-01 +6.02870062e-02 -1.29908636e-01 +1.82558864e-01 +2.34297901e-01 +2.33563185e-01 -9.48030874e-03 -7.41297845e-04 +3.56617510e-01 -4.80181724e-01 -1.28712341e-01 +2.87760615e-01 -2.04448760e-01 +1.98685616e-01 +8.09438825e-02 +2.67300874e-01 -2.02881992e-01 +2.26619735e-01 -6.07891381e-01 -2.09908038e-01 +5.70704281e-01 +4.59659010e-01 +3.69961441e-01 +3.25905412e-01 +1.10130697e-01 +8.22996646e-02 -2.41608098e-01 -7.91393816e-02 +8.82092863e-02 -7.38818850e-03 -5.12995064e-01 +2.58251607e-01 -3.24669957e-01 -3.65213066e-01 -3.29657733e-01 +1.66027471e-01 -4.26253945e-01 -2.35416904e-01 -1.95816141e-02 -6.28939986e-01 +2.23204970e-01 -2.14773379e-02 -3.27138066e-01 -1.25409067e-01 -2.23391280e-02 -2.84062140e-03 +1.34454772e-01 -2.59616911e-01 -3.60687375e-01 -2.39728704e-01 -7.71199539e-02 +2.71156996e-01 +3.28741223e-01 +2.26030156e-01 -2.81171083e-01 +8.04670602e-02 +1.14292920e-01 +7.92225264e-03 +2.00378716e-01 +2.37311721e-01 -1.24012321e-01 -7.99991116e-02 -3.56492013e-01 +5.06422162e-01 +2.75705487e-01 +7.85908476e-02 -4.43830580e-01 -1.29105344e-01 +1.32244648e-02 -2.30382740e-01 +4.63663071e-01 -1.77523360e-01 -3.28376770e-01 -1.83901694e-02 +1.79498680e-02 -4.89633739e-01 +1.84632489e-04 +1.98022515e-01 -3.37590612e-02 -4.70146164e-02 -1.17043391e-01 -3.09828579e-01 +1.56224474e-01 -2.32791796e-01 -9.26713347e-02 -1.12094104e-01 -1.53975829e-01 -2.91511327e-01 -2.25398749e-01 +3.46195638e-01 +1.88585389e-02 +1.37706190e-01 +9.17843431e-02 +8.26791599e-02 +1.99118614e-01 +3.04120511e-01 -1.29642874e-01 +1.33498400e-01 +2.96221990e-02 +4.37628478e-02 -1.57192975e-01 +1.48762211e-01 -2.84243915e-02 +2.65821181e-02 -2.36349806e-01 +2.23045558e-01 +4.00324821e-01 -1.70874700e-01 +3.41794550e-01 -5.15311733e-02 -3.27982068e-01 +4.46083657e-02 -2.83936579e-02 +3.93236950e-02 -5.16575128e-02 +2.69962121e-02 -2.85465211e-01 -1.79938510e-01 -6.26982078e-02 -8.33165422e-02 +2.12152168e-01 -1.04943536e-01 +4.20700401e-01 +1.02137536e-01 -1.83808059e-01 -1.60387665e-01 -8.23967457e-02 +1.43687120e-02 -2.71221306e-02 +2.75237232e-01 -2.34418154e-01 -1.12526432e-01 -1.56446502e-01 -4.00443941e-01 -1.44300267e-01 +2.39028975e-01 +2.98331201e-01 -1.18794814e-01 -1.33724451e-01 +5.92248254e-02 +2.79615462e-01 +2.16273800e-03 +5.17333388e-01 -2.26564169e-01 -2.31092572e-02 +1.19073778e-01 -4.66443188e-02 +6.46333635e-01 -1.30442768e-01 -1.46833673e-01 +3.38982016e-01 -1.92824826e-01 -2.44232133e-01 -2.29711965e-01 -1.78008154e-01 +6.51974201e-01 -6.56948611e-02 +4.70587909e-02 +5.85586801e-02 +2.40516335e-01 +1.17500117e-02 -2.85530955e-01 +1.46389320e-01 -9.54854190e-02 -1.61306441e-01 +2.53504403e-02 -5.28962016e-01 -5.61888143e-03 +1.98509023e-01 +4.57443565e-01 +1.16751961e-01 -1.38769254e-01 +8.96268561e-02 +2.11159125e-01 -4.88158949e-02 -6.85343817e-02 +1.19321622e-01 +1.36571512e-01 -5.91065101e-02 +2.07681507e-01 +4.15332645e-01 -3.45156759e-01 +3.38877976e-01 -7.50027075e-02 +1.06047362e-01 +1.57482132e-01 +3.95067751e-01 +1.19313158e-01 -3.18354070e-01 +2.21794352e-01 -2.44142473e-01 +1.80513203e-01 -7.95324296e-02 +4.38769877e-01 -5.58015227e-01 +8.14762890e-01 -1.10943858e-02 -3.52124944e-02 +2.15921804e-01 +8.38870090e-03 +1.41352177e-01 +5.09025991e-01 +7.03709722e-02 -1.96623161e-01 -1.20833509e-01 +1.01839080e-01 -4.44781572e-01 +1.88342705e-01 -1.86656862e-01 -3.64470959e-01 -7.46392682e-02 +2.61818711e-02 +5.40508449e-01 +5.42314589e-01 -1.26309827e-01 -2.12922260e-01 -7.48701692e-02 +1.80151969e-01 +3.26915026e-01 +1.58865660e-01 -4.59788926e-02 -1.51551634e-01 -1.45892173e-01 -5.42310476e-02 -4.35865484e-03 +3.47637743e-01 +3.19154680e-01 +1.10689193e-01 -8.91893879e-02 -1.42480478e-01 -3.42850715e-01 -5.74023664e-01 -5.77800453e-01 -4.31242943e-01 +1.04080006e-01 +2.57205397e-01 +3.61905515e-01 +3.50708902e-01 -2.92581350e-01 +6.51653349e-01 +3.24912965e-01 -1.50235891e-01 -5.11394218e-02 +7.80239701e-02 -1.98848531e-01 -8.24771076e-02 -2.41407067e-01 -5.94669044e-01 -8.82813036e-02 -6.46677375e-01 +2.50679046e-01 +3.74543928e-02 +1.54687494e-01 -2.43219972e-01 -9.89622250e-02 -1.56510651e-01 -5.74831031e-02 +1.76445588e-01 -4.71707016e-01 -1.35984719e-01 -1.01625824e+00 -1.54278189e-01 +2.28538603e-01 -4.48754847e-01 -2.35987321e-01 -1.70172438e-01 +4.44244236e-01 +1.69672724e-02 +4.96280402e-01 +6.45627558e-01 +1.36752337e-01 +4.05034930e-01 -2.57889777e-01 -4.74500328e-01 +4.04014215e-02 -4.05917525e-01 -6.34907112e-02 -1.85843229e-01 +5.99054575e-01 +6.13558233e-01 +2.18762264e-01 -1.20267801e-01 +2.88228780e-01 -1.65049732e-01 +3.15646201e-01 +3.91522169e-01 -1.72933504e-01 -1.13380283e-01 +8.65582153e-02 -3.20483863e-01 +4.64520045e-02 +1.38336688e-01 -3.56742650e-01 +1.52187929e-01 +1.63781136e-01 -1.26692429e-01 +4.37594354e-02 -9.57500488e-02 -2.97624096e-02 +3.11290592e-01 +2.51148827e-02 -3.48444313e-01 -1.59185052e-01 -2.19137266e-01 -2.53903806e-01 -1.93163842e-01 +3.85107607e-01 +2.53212508e-02 +1.86401039e-01 +1.51590958e-01 +1.58627391e-01 +1.86537847e-01 +2.74498522e-01 +1.17157467e-01 -7.15125352e-02 -1.07247844e-01 +1.58688873e-01 -2.37478584e-01 +1.11166723e-01 -1.80238903e-01 +1.49165019e-01 -1.22437343e-01 -1.47449270e-01 -1.84746534e-01 -3.98236781e-01 +1.93940684e-01 +2.10295260e-01 +8.49252567e-04 +2.46625215e-01 -5.37665840e-03 +1.07083417e-01 -3.88864338e-01 -7.97886327e-02 +2.22793341e-01 -1.25513762e-01 -2.54037797e-01 +3.26653682e-02 +1.56305715e-01 +1.91295832e-01 +4.16378558e-01 +3.61281633e-01 +4.29631397e-02 -4.24686521e-01 -4.50705923e-02 -3.91650051e-02 -1.57732755e-01 -2.39746302e-01 +3.80858704e-02 -4.66704145e-02 +1.92627013e-01 +9.79361534e-02 +2.65604973e-01 +2.24727646e-01 +1.17338248e-01 -1.79143861e-01 -1.68565705e-01 -4.72314954e-01 -3.59367400e-01 +2.41016611e-01 +2.04583909e-02 -1.00320950e-01 +1.01670437e-02 -1.14907071e-01 -4.52573061e-01 +1.95455566e-01 +2.36409176e-02 +7.77683780e-02 +2.04608455e-01 +4.50427055e-01 -1.88055754e-01 -1.10026196e-01 +3.61602344e-02 +5.07950336e-02 -6.65364265e-01 -1.51459500e-01 -1.18758947e-01 +2.13766366e-01 -8.37124363e-02 -5.19409776e-02 +1.45109326e-01 +6.05993494e-02 -7.66783059e-02 +1.73106551e-01 +3.41103792e-01 -2.38862902e-01 +4.58005555e-02 -1.11203678e-01 +5.37231900e-02 -1.07431293e-01 +5.68956286e-02 +1.19282387e-01 -1.12051725e-01 -3.10615897e-01 +8.94873589e-02 -3.53390098e-01 -4.82257783e-01 -3.92733604e-01 +2.72034556e-01 -2.93694615e-01 -2.02429757e-01 +2.39486486e-01 -1.12761736e-01 +6.91594854e-02 -1.14128307e-01 +3.67540687e-01 -1.09194778e-01 -1.07699856e-01 -1.77962035e-01 +6.54110610e-01 -4.35923375e-02 +7.98423309e-03 -3.45344692e-01 -2.01355755e-01 -2.18670666e-01 +6.48916066e-02 -2.94819474e-01 -3.37401152e-01 +1.03628017e-01 +3.84413190e-02 -1.46338344e-01 -1.31019875e-01 +1.45114120e-02 -3.92621577e-01 -7.29039833e-02 -3.10627639e-01 -2.00543687e-01 -2.06200555e-01 +1.55760050e-01 +1.78265211e-03 +1.68974325e-01 -4.25131097e-02 -6.54950738e-02 -4.15080577e-01 +3.43243196e-03 +7.91312829e-02 -8.15056324e-01 +1.71906888e-01 +4.74218458e-01 -2.43514061e-01 +7.06779003e-01 -8.40614736e-01 -2.40219578e-01 -4.73514318e-01 +8.21066089e-03 -1.34532377e-01 +3.90784442e-01 -1.16775624e-01 +2.88663805e-01 -9.16751921e-02 -4.28614281e-02 -1.35323867e-01 +1.07967354e-01 -4.96513471e-02 -2.14507341e-01 +5.04697934e-02 -1.06789537e-01 -1.21400645e-02 +2.72450447e-01 +3.09376549e-02 +2.10038230e-01 -5.58364749e-01 +2.57339418e-01 -5.59333265e-01 -6.31251112e-02 +2.22281218e-01 +1.94281906e-01 +1.13784656e-01 -2.27227837e-01 +1.45823598e-01 -4.01351273e-01 -1.87076241e-01 +3.89050931e-01 -1.37510091e-01 -3.30722965e-02 +7.11584613e-02 +2.40521550e-01 +1.74198821e-01 +6.05111271e-02 -3.15638810e-01 -3.94214958e-01 +5.46504736e-01 -5.39777102e-03 -2.50204235e-01 +3.78234684e-01 -3.87847453e-01 +6.92434162e-02 +2.14634970e-01 -3.14520061e-01 -9.49347112e-03 -3.73253345e-01 -1.38616845e-01 -1.32783517e-01 +2.37204954e-01 -4.94193137e-02 -4.64605927e-01 +3.01385969e-01 +6.36032522e-01 +3.03389788e-01 -3.36676747e-01 -9.99147221e-02 -5.72678924e-01 +1.85019493e-01 +1.14453085e-01 +1.47772476e-01 -2.45338351e-01 +1.39297798e-01 -2.76981831e-01 +4.92403448e-01 -2.00491071e-01 +2.01009723e-04 -6.41959812e-03 +1.09204337e-01 -6.51918277e-02 +4.42142814e-01 -2.29981273e-01 +9.91298109e-02 -5.60788453e-01 +5.71042717e-01 +5.83278015e-04 +2.26882577e-01 +4.53538634e-02 +1.12644240e-01 +4.16087747e-01 +3.66117120e-01 +2.39152629e-02 -6.61840916e-01 -1.85640007e-01 -1.15644000e-02 +3.19653600e-02 -1.11398220e-01 -3.82844865e-01 +2.88470536e-01 -9.81891230e-02 +6.15766235e-02 +1.09438606e-01 -1.19422272e-01 -1.78380653e-01 +7.97145292e-02 +1.40378177e-01 +1.94714695e-01 -5.59825897e-02 +2.56884754e-01 -4.53906618e-02 -1.11784130e-01 +4.32939559e-01 -1.36494964e-01 -5.52016854e-01 -9.54076409e-01 -5.76263331e-02 +6.04759576e-03 +2.08541229e-01 -3.15991528e-02 -2.90076524e-01 +8.58927965e-02 -1.11928709e-01 +1.44608259e-01 -2.44176611e-01 +1.84236113e-02 -3.07510197e-01 -4.22512114e-01 -2.77169645e-02 -1.02164067e-01 -6.27896655e-03 +1.71562463e-01 +2.23768074e-02 -1.72719046e-01 +1.06216796e-01 -4.49559540e-01 -1.55257076e-01 -3.34554091e-02 -3.50303084e-01 -7.36262053e-02 -1.51992142e-01 +1.74673051e-01 +7.29813427e-02 +2.22010892e-02 -2.75654316e-01 -3.07896346e-01 +2.19258696e-01 -4.15138751e-01 -2.64461964e-01 +5.77484444e-03 +1.41761992e-02 -3.11292112e-01 -1.31863251e-01 +1.90777063e-01 -2.32122689e-01 -3.05609763e-01 -2.13274658e-01 -5.35310805e-02 +2.91130573e-01 +4.61537093e-02 +3.69990021e-02 +5.88913448e-02 +2.99921393e-01 +8.00819546e-02 -1.05034128e-01 -3.18841249e-01 +2.69709766e-01 +1.09756216e-01 -1.82244927e-01 +2.29743868e-01 -3.01334560e-01 +2.52074391e-01 +2.35691950e-01 -2.81934381e-01 -8.24516565e-02 +9.42504853e-02 -3.91630560e-01 +1.48549557e-01 -4.28645313e-01 +6.45207986e-02 -4.53202963e-01 +1.40797749e-01 -2.81912537e-04 +9.22152460e-01 -3.73081744e-01 -2.12449729e-01 +1.68790832e-01 +8.22963193e-02 -8.45381320e-02 -4.77681249e-01 -1.06504350e-03 -5.15741646e-01 +4.10108209e-01 -6.36933982e-01 +2.71214932e-01 +5.41797206e-02 +1.34977296e-01 +1.16794400e-01 -1.00525573e-01 +6.65245533e-01 -1.61436036e-01 +2.30307713e-01 +1.32356256e-01 +4.61881608e-01 +3.46253991e-01 +1.40324101e-01 -5.24531640e-02 +5.05124629e-01 +1.84958339e-01 +6.38461206e-03 +5.03746748e-01 -2.54069000e-01 +3.27047467e-01 +5.27593642e-02 +2.12477352e-02 -5.42177439e-01 -4.35176462e-01 -5.15588641e-01 -4.29821849e-01 +5.16511083e-01 +1.90429449e-01 +1.00052439e-01 -6.34968817e-01 -1.77679643e-01 -3.10034696e-02 -1.47328958e-01 +5.00554919e-01 +4.13350277e-02 -8.21047902e-01 +1.72483444e-01 -1.69196963e-01 +3.91917616e-01 +3.38764280e-01 -2.14059442e-01 -1.77441817e-02 +1.01238213e-01 -4.37646240e-01 -3.50582033e-01 -1.29757717e-01 -3.07726383e-01 -1.23385573e-02 +8.70376155e-02 -4.86466855e-01 -8.62062037e-01 +2.40213960e-01 -1.06955029e-01 -1.46478713e-01 -2.31693372e-01 -7.75478110e-02 -3.08786422e-01 -1.02094129e-01 +1.09373383e-01 -1.31373733e-01 +9.74198207e-02 -1.12092100e-01 +4.37642559e-02 -1.36583894e-01 +3.78137566e-02 +3.17051746e-02 +3.19812708e-02 +9.70191963e-04 -1.25175312e-01 -1.14061855e-01 -5.53000942e-02 -2.39634380e-01 +2.61840671e-02 +2.19968706e-01 +8.70627984e-02 +1.04457371e-01 +4.89576757e-02 -5.55522107e-02 -1.17770523e-01 +4.63854641e-01 +3.83721769e-01 +4.21768844e-01 -1.19810440e-01 +1.13373563e-01 +6.80144818e-04 -2.19294593e-01 +3.68113726e-01 -1.60248548e-01 -3.63182098e-01 -4.75452036e-01 +9.49659664e-03 +1.89544678e-01 +6.77785883e-03 +5.22688702e-02 -2.02266052e-02 +8.52132291e-02 -1.27972513e-01 -2.82013506e-01 -1.99763700e-01 -2.47343443e-02 +8.44084397e-02 +2.40665630e-01 +1.37229234e-01 -2.74292737e-01 -1.09925829e-01 +7.98406824e-02 -1.21700078e-01 +1.38787776e-01 +9.86756310e-02 -2.38768652e-01 -4.38648388e-02 -2.43838262e-02 -2.41339281e-01 +2.59705260e-02 +6.26887977e-01 +1.45886377e-01 -1.78727910e-01 -1.53357103e-01 +1.98295310e-01 +4.98180836e-01 +1.21630691e-02 +3.21183592e-01 -1.80001840e-01 -1.58093244e-01 -9.68506932e-02 -3.40785176e-01 +5.21767847e-02 +2.27970332e-01 -2.17673749e-01 -8.98231119e-02 -1.38730317e-01 -2.61171311e-01 -3.10586244e-02 -2.75139630e-01 -1.47119343e-01 +1.72740132e-01 -9.85069424e-02 -1.69279590e-01 +1.69104829e-01 +2.01369628e-01 -1.31881028e-01 -1.53535500e-01 +2.53954679e-01 +3.72691005e-02 -4.66063201e-01 +1.18585378e-01 -6.33583292e-02 -3.28110993e-01 -3.65153775e-02 -3.12373549e-01 +7.96513781e-02 +3.56533945e-01 -2.21951380e-01 -3.16969723e-01 +3.54844004e-01 +2.18923822e-01 -5.52377701e-01 +4.05705094e-01 -1.53981075e-01 +9.08448547e-02 +2.28577673e-01 -2.29539171e-01 +2.84938782e-01 -7.99138024e-02 -6.35648608e-01 +2.23803282e-01 -6.58798218e-01 -2.92023242e-01 +2.50821471e-01 -4.79407251e-01 +2.72671729e-01 +2.84539610e-01 +2.13260055e-01 +4.36112136e-02 +1.06521681e-01 -8.52533877e-02 -5.57602420e-02 +5.05933106e-01 -1.53351411e-01 +1.55811787e-01 +2.21755698e-01 -6.10178888e-01 +1.32595062e-01 -9.75391939e-02 -7.71900237e-01 +1.83426395e-01 -2.30334654e-01 -2.92013675e-01 -1.76601171e-01 +2.90562481e-01 +2.71236021e-02 +4.07497764e-01 +2.37792641e-01 -1.85767502e-01 +8.76967236e-02 +2.86090132e-02 -5.57955980e-01 +4.89064962e-01 -3.99513125e-01 +2.91935235e-01 +4.36666459e-01 +2.29968637e-01 -1.49950132e-01 -1.58429489e-01 -3.41770530e-01 -3.37179899e-01 +1.65006861e-01 -3.93943600e-02 -3.43559384e-01 +1.67585358e-01 -5.83784759e-01 +7.89641291e-02 -3.59851897e-01 +1.69952303e-01 -1.21979423e-01 +1.63064525e-01 +7.49807656e-02 +1.64761722e-01 -2.22679198e-01 +9.31639522e-02 -1.19656339e-01 +6.91885576e-02 -5.50480306e-01 +3.31873208e-01 -5.83091617e-01 -1.65787399e-01 -2.71906346e-01 -2.01285005e-01 -1.46007881e-01 -4.25377101e-01 -2.92901516e-01 -6.88811066e-03 -2.77024209e-01 +1.77388310e-01 -1.59672633e-01 -4.61640567e-01 +5.75529933e-01 -5.72289169e-01 -7.52590448e-02 +1.86145768e-01 -5.45393862e-02 -3.39132369e-01 +7.22528845e-02 +2.60497212e-01 -1.40418857e-01 -5.30526340e-01 +2.36118078e-01 -2.74327248e-01 +2.64406741e-01 -1.63165256e-01 +8.07952210e-02 -2.31424809e-01 +1.21884998e-02 +1.65275216e-01 +3.05626333e-01 -4.80643094e-01 -5.06919622e-02 -7.88186044e-02 +5.48160523e-02 -7.08878972e-03 -1.50149330e-01 -1.37707874e-01 +1.88354611e-01 +1.71050191e-01 +5.23857415e-01 +2.20518097e-01 -1.45698324e-01 -3.10354005e-03 +2.35010415e-01 -4.31250148e-02 -1.35298431e-01 -2.86825031e-01 -2.12458536e-01 -1.18872084e-01 -2.94236004e-01 +1.78610105e-02 +1.03950121e-01 -1.57811522e-01 +2.93874741e-01 +4.46483642e-01 +1.40248686e-01 -2.76777297e-01 -8.58990312e-01 +4.76752631e-02 -1.45657048e-01 -2.35542539e-03 +3.37175101e-01 +1.55413728e-02 -9.97419655e-02 -1.98284425e-02 +1.00124359e-01 +9.12355408e-02 +7.66783804e-02 -1.97664887e-01 +1.74046069e-01 -1.07322522e-01 -2.56996732e-02 +6.47833794e-02 -7.78761804e-02 +1.52114093e-01 +2.89788336e-01 +8.65882039e-02 -1.56157777e-01 +1.66316435e-01 -3.32664371e-01 -3.57601345e-01 +2.91067898e-01 +6.59153536e-02 +3.52885723e-01 +1.86186969e-01 -1.79566473e-01 +4.39537801e-02 +2.52214432e-01 +2.38852933e-01 -2.87880152e-01 -1.61774352e-01 -8.03439319e-03 +2.86489893e-02 +1.66367332e-03 -1.05886228e-01 +1.19238697e-01 +2.08063379e-01 -2.05831617e-01 -7.38619491e-02 +2.78242588e-01 +3.48662496e-01 +1.38932198e-01 -2.11486414e-01 +6.31249323e-03 -3.06619614e-01 +9.65435356e-02 +1.42950164e-02 +2.15220936e-02 +1.68328524e-01 -3.11345696e-01 -2.85739928e-01 +8.52940083e-02 +3.09405982e-01 +3.19015294e-01 -1.01507634e-01 +5.15716374e-02 +2.93528199e-01 -2.50378221e-01 -2.11161524e-01 -1.74471125e-01 -1.51670456e-01 +3.61296147e-01 +8.80512968e-02 +1.26609951e-01 +3.38115990e-01 +7.61108240e-05 +1.17192082e-02 +1.35272294e-01 -2.06153885e-01 +2.00646698e-01 +1.61748543e-01 +2.82696009e-01 -2.14689955e-01 -4.38645110e-02 -2.12030225e-02 +9.65552852e-02 +8.27799439e-02 -2.48409957e-01 -3.47844452e-01 -3.50133479e-01 -9.73697454e-02 -4.39905345e-01 +1.89250812e-01 +3.00742537e-01 +6.85961068e-01 +2.74465591e-01 +5.10635749e-02 -8.35449874e-01 -1.18124932e-01 +1.77026674e-01 -1.03860870e-01 +6.34618774e-02 -4.85352091e-02 +4.54639673e-01 +4.06951785e-01 +1.01969913e-01 +1.89164504e-02 +1.75856024e-01 -2.72014111e-01 +7.55408883e-01 -5.04194081e-01 +1.18666328e-01 +2.52254903e-01 +3.43963504e-01 -1.03459340e-02 +7.32736886e-01 -3.27612996e-01 -5.12883484e-01 -2.89117783e-01 -8.43930319e-02 -3.03717941e-01 +7.47658461e-02 -4.02224988e-01 +2.98015475e-01 -1.28652994e-03 -8.06288719e-01 +2.31152549e-01 -2.11485788e-01 +3.89643162e-01 -2.48382077e-01 -2.55080372e-01 +2.82868266e-01 +3.74713182e-01 +2.63750345e-01 -6.76723719e-02 +1.47216886e-01 +9.08758938e-02 +6.45564944e-02 +1.37136102e-01 +6.30374998e-02 +3.58838409e-01 +1.65388048e-01 -3.00648630e-01 +1.17548160e-01 +6.32739007e-01 +7.70797014e-01 +3.85747313e-01 -5.05244076e-01 -2.48244047e-01 +5.80339015e-01 +2.92478707e-02 +3.09408247e-01 +3.25121850e-01 +1.96348101e-01 -2.77374595e-01 +3.57642710e-01 +6.63585961e-02 -1.79358259e-01 +5.68288326e-01 +1.60712153e-01 -5.38476184e-02 -4.39772196e-02 +1.26754895e-01 +4.28128719e-01 +2.75180072e-01 +2.58746028e-01 -2.84192175e-01 +3.94929826e-01 -6.38858914e-01 +4.57110763e-01 +3.85466367e-01 +8.19432080e-01 -1.66037187e-01 +2.68745691e-01 +7.54729286e-02 -1.55307263e-01 -1.47185437e-02 -7.65918521e-03 -1.22767292e-01 -8.62079486e-02 -2.33507305e-01 +3.43261868e-01 +1.16446558e-02 +4.93351638e-01 +4.34799522e-01 -2.54532158e-01 -2.83744156e-01 +1.64068788e-01 -4.90022935e-02 +2.00718179e-01 +8.18272680e-02 -3.04688126e-01 +1.74070701e-01 +3.00531626e-01 +7.51853228e-01 +1.99122146e-01 +7.81829178e-01 +5.91546714e-01 +2.43106231e-01 -6.34457096e-02 +6.26897812e-01 -3.49307316e-03 +1.23397317e-02 +2.13739991e-01 -4.39904392e-01 +2.91384339e-01 +1.54765084e-01 -2.50819802e-01 -2.24002288e-03 +5.91189377e-02 +4.24756035e-02 +2.24360496e-01 -4.08224575e-03 -3.53648305e-01 +2.40324453e-01 